tree
version=v4
num_class=1
num_tree_per_iteration=1
label_index=0
max_feature_idx=126
objective=regression
feature_names=Column_0 Column_1 Column_2 Column_3 Column_4 Column_5 Column_6 Column_7 Column_8 Column_9 Column_10 Column_11 Column_12 Column_13 Column_14 Column_15 Column_16 Column_17 Column_18 Column_19 Column_20 Column_21 Column_22 Column_23 Column_24 Column_25 Column_26 Column_27 Column_28 Column_29 Column_30 Column_31 Column_32 Column_33 Column_34 Column_35 Column_36 Column_37 Column_38 Column_39 Column_40 Column_41 Column_42 Column_43 Column_44 Column_45 Column_46 Column_47 Column_48 Column_49 Column_50 Column_51 Column_52 Column_53 Column_54 Column_55 Column_56 Column_57 Column_58 Column_59 Column_60 Column_61 Column_62 Column_63 Column_64 Column_65 Column_66 Column_67 Column_68 Column_69 Column_70 Column_71 Column_72 Column_73 Column_74 Column_75 Column_76 Column_77 Column_78 Column_79 Column_80 Column_81 Column_82 Column_83 Column_84 Column_85 Column_86 Column_87 Column_88 Column_89 Column_90 Column_91 Column_92 Column_93 Column_94 Column_95 Column_96 Column_97 Column_98 Column_99 Column_100 Column_101 Column_102 Column_103 Column_104 Column_105 Column_106 Column_107 Column_108 Column_109 Column_110 Column_111 Column_112 Column_113 Column_114 Column_115 Column_116 Column_117 Column_118 Column_119 Column_120 Column_121 Column_122 Column_123 Column_124 Column_125 Column_126
feature_infos=[0.8339226245880127:3.5708415508270264] [-3.2742898464202881:0.98605674505233765] [-2.511195182800293:3.1211903095245361] [-1.2730029821395874:3.2266602516174316] [-3.1842191219329834:1.3479048013687134] [-3.1279489994049072:0.92535120248794556] [0.84558743238449097:3.4925336837768555] [-3.2180702686309814:-0.33282893896102905] [-3.1057605743408203:1.2055399417877197] [-3.3332157135009766:1.3748295307159424] [-3.1350481510162354:3.1873021125793457] [-3.3132622241973877:0.55973070859909058] [-3.5673768520355225:3.7027029991149902] [-3.2113149166107178:3.3432967662811279] [-3.3091847896575928:3.1000070571899414] [-3.1282610893249512:3.7095682621002197] [-3.2336251735687256:3.1743006706237793] [-3.4178488254547119:3.1865930557250977] [-3.6289417743682861:3.6249129772186279] [-3.3316199779510498:3.2621047496795654] [-3.3247759342193604:3.3151829242706299] [-3.5411250591278076:3.2677497863769531] [-3.4354755878448486:3.4191327095031738] [-3.27652907371521:3.562716007232666] [-5.1993374824523926:5.1993374824523926] [-3.1878612041473389:3.2568750381469727] [-3.3066513538360596:3.1693069934844971] [-3.2635822296142578:3.2457311153411865] [-3.6834545135498047:3.2471432685852051] [-3.2223160266876221:3.3350691795349121] [-3.1995038986206055:3.2778010368347168] [-5.1993374824523926:3.2302126884460449] [0.8691290020942688:3.7204074859619141] [0:1.2266640663146973] [0.87432003021240234:3.5093920230865479] [0:1.1845806837081909] [0.88088810443878174:3.3689804077148438] [0:0.97028499841690063] [0.88088810443878174:5.1993374824523926] [0.56301599740982056:2.3476278781890869] [0.8997231125831604:3.5289914608001709] [0:1.6967328786849976] [0.91691619157791138:3.4454803466796875] [0:1.2565128803253174] [0.9303586483001709:3.3877096176147461] [0:0.92696201801300049] [1.0550342798233032:5.1993374824523926] [0.83513635396957397:2.2738571166992188] [-2.7473394870758057:3.2090270519256592] [0:3.9806160926818848] [-2.6315186023712158:3.141197681427002] [0:3.8224725723266602] [-1.7160903215408325:2.9387218952178955] [0.032479226589202881:3.1445658206939697] [-1.2369334697723389:5.1993374824523926] [-5.1993374824523926:2.4005484580993652] [-3.2865593433380127:3.3226382732391357] [0:3.6661815643310547] [-3.2476334571838379:3.3159642219543457] [0:3.5302033424377441] [-3.1019351482391357:3.2116053104400635] [0:3.1875369548797607] [-3.0942409038543701:3.657721996307373] [-5.1993374824523926:2.8568449020385742] [-2.9896674156188965:2.8870358467102051] [0:3.9031021595001221] [-2.1183872222900391:2.0515232086181641] [0:3.548565149307251] [-1.2034146785736084:1.0998314619064331] [0:2.9922702312469482] [0.036390524357557297:5.1993374824523926] [-5.1993374824523926:0.084155328571796417] [-2.6898007392883301:1.6637901067733765] [0:3.8690273761749268] [-2.0407884120941162:1.1558470726013184] [0:3.3269615173339844] [-1.2886104583740234:0.11969734728336334] [0:2.7348213195800781] [-0.16382378339767456:5.1993374824523926] [-5.1993374824523926:-0.16382378339767456] [0.84130555391311646:5.1993374824523926] [-2.2178256511688232:2.2125778198242188] [0.8339226245880127:4.3693876266479492] [-2.4613370895385742:2.3373441696166992] [0.56301599740982056:3.7114493846893311] [-2.2893016338348389:2.3309826850891113] [0.84558743238449097:5.1993374824523926] [-2.2653846740722656:2.3446741104125977] [0.84870278835296631:5.1993374824523926] [-3.4774234294891357:2.1885771751403809] [0.84153735637664795:3.5852813720703125] [-2.2808284759521484:2.2741174697875977] [-3.5675661563873291:5.1993374824523926] [-6.6407127380371094:6.5776605606079102] [-3.589569091796875:3.4493072032928467] [-6.3650970458984375:6.3458395004272461] [-3.589569091796875:3.2753474712371826] [-6.3236465454101562:6.8607907295227051] [-3.6207306385040283:3.3236715793609619] [-6.502655029296875:6.8702936172485352] [-3.5813772678375244:3.5938260555267334] [-6.512779712677002:6.6964316368103027] [-3.5240814685821533:3.4092190265655518] [-6.6411685943603516:6.6129894256591797] [-4.0691471099853516:5.1993374824523926] [-8.7399044036865234:8.3357706069946289] [-5.1993374824523926:5.1993374824523926] [-8.1587543487548828:8.1721773147583008] [-5.1993374824523926:3.5317425727844238] [-6.4157118797302246:6.546442985534668] [-5.1993374824523926:3.2541253566741943] [-6.2550697326660156:8.3936958312988281] [-5.1993374824523926:3.2838351726531982] [-6.248967170715332:6.5725579261779785] [-5.1993374824523926:3.3085291385650635] [-6.275334358215332:6.2562551498413086] [-2.3209364414215088:2.3356246948242188] [-6.3364677429199219:6.3834776878356934] [0.89983475208282471:3.3867919445037842] [0.89983475208282471:5.1993374824523926] [-2.0073018074035645:2.0787911415100098] [-95216.84375:372623.71875] [-28.790319442749023:10.989168167114258] [-7.4348897933959961:12.427123069763184] [-1.7534723281860352:2.2508535385131836] [0.099099099636077881:1] [0.009820631705224514:1]
tree_sizes=6346 6461 6467 6461 6491 6448 6475 6506 6458 6467 6452 6467 6440 6453 6479 6493 6474 6471 6452 6443 6497 6447 6436 6471 6454 6439 6474 6440 6469 6488 6465 6446 6434 6472 6469 6464 6449 6435 6442 6445 6461 6471 6446 6436 6479 6456 6436 6427 6399 6476 6396 6442 6436 6374 6396 6378 6446 6422 6422 6450 6440 6439 6461 6479 6381 6413 6446 6451 6383 6346 6415 6403 6412 6372 6370 6349 6355 6302 6393 6409 6396 6321 6319 6382 6348 6441 6366 6421 6381 6414 6374 6344 6300 6427 6351 6406 6329 6349 6385 6378 6302 6400 6321 6372 6388 6270 6286 6390 6310 6310 6326

Tree=0
num_leaves=63
num_cat=0
split_feature=81 124 20 26 2 31 13 81 8 2 124 13 20 2 8 117 117 1 117 1 8 13 87 20 20 26 8 87 117 2 13 31 117 31 2 20 77 3 87 119 87 8 8 2 117 20 21 117 77 119 87 13 8 8 2 13 31 124 20 20 4 13
split_gain=53272.6 31523.3 13327.1 11524.7 10842.3 7613.45 7284.52 6662.81 6392.87 5533.25 4938.83 4864.76 4861.48 4583.23 4549.98 3306.26 3015.13 2845.08 2770.58 2690.64 2635.84 2528.89 2232.04 2099.64 1935.61 1909.65 1898.45 1712.48 1681.55 1680.12 1579.41 1577.5 1557.58 1557.26 1492.22 1239.14 1219.39 1218.12 1193.73 1167.44 1154.17 1138.21 1018.41 940.368 927.535 919.62 903.119 895.639 892.98 883.653 879.86 853.325 970.685 849.41 838.395 785.168 761.241 707.33 702.915 678.708 671.053 666.966
threshold=0.19418668746948245 -0.06486570835113524 -0.19426187872886655 -1.425590395927429 0.39322553575038915 1.2602251768112185 0.9296134114265443 0.62651312351226818 0.20338726788759234 0.42343738675117498 -0.068972595036029802 0.90963524580001842 -0.58119001984596241 0.27052307128906256 0.14990099519491198 0.27324998378753668 -0.24182832241058347 -2.5856031179428096 -0.14047691226005551 -2.8383455276489253 0.10877258330583574 0.91930505633354198 0.18545240163803103 -1.369139492511749 -0.35797199606895441 -1.3987858891487119 0.10747217759490015 0.18383061885833743 -0.80639392137527455 0.42343738675117498 0.51581299304962169 1.3416232466697695 -0.35633946955204004 0.34915238618850714 0.39322553575038915 -1.3841360211372373 1.3894158005714419 1.3779939413070681 0.13254392147064212 1.9921394586563113 0.46899968385696417 0.20486395061016086 -0.11779963970184325 0.27216754853725439 0.53343316912651073 0.0082368720322847384 -0.15859992057085034 0.24177817255258563 1.4211744666099551 1.4815916419029238 -0.039245784282684319 1.7419634461402895 -0.1416671350598335 -0.3627925962209701 0.26194685697555548 0.74461823701858532 0.49951894581317907 -0.16523513197898862 -1.2040601372718809 -0.90071931481361378 -2.2599248886108394 0.81525036692619335
decision_type=2 2 2 2 2 2 2 2 2 2 2 2 2 2 2 2 2 2 2 2 2 2 2 2 2 2 2 2 2 2 2 2 2 2 2 2 2 2 2 2 2 2 2 2 2 2 2 2 2 2 2 2 2 2 2 2 2 2 2 2 2 2
left_child=1 4 6 19 11 8 9 10 21 33 45 24 25 32 55 51 31 60 36 -2 39 26 35 37 -1 50 34 29 -7 47 49 -12 -8 54 -4 -22 -13 -21 -10 -11 -16 -29 -25 -23 -35 61 -27 -15 -26 -18 -6 52 -9 -19 -3 57 -28 -14 -41 -56 -17 -5
right_child=3 2 5 7 12 28 13 15 38 20 16 18 14 27 40 17 30 53 -20 23 22 43 -24 42 48 46 56 41 -30 -31 -32 -33 -34 44 -36 -37 -38 -39 -40 58 -42 -43 -44 -45 -46 -47 -48 -49 -50 -51 -52 -53 -54 -55 59 -57 -58 -59 -60 -61 -62 -63
leaf_value=-0.16888104904422283 -0.21214938360386534 -0.16133137616295076 -0.16065083219572326 -0.17792425233237252 -0.19031762537615043 -0.13403503209234474 -0.14135824899846527 -0.17974772881207018 -0.15067895903433309 -0.17096309309228147 -0.1652765252262639 -0.15175669131215971 -0.17496992196522879 -0.15488921014416557 -0.16206363510779692 -0.22163720694609607 -0.17143664712078871 -0.18764401140433171 -0.16187474939580637 -0.18904049714981291 -0.17620761321011871 -0.14825117527798964 -0.15402307978221899 -0.1852542532839353 -0.1646147494081652 -0.17353797294928949 -0.15988022405405261 -0.15871570915645111 -0.1484105001164559 -0.16621450860383144 -0.16811607535383088 -0.15291369423843548 -0.1538894679865396 -0.15843854756159434 -0.16724926896464648 -0.16510215020979482 -0.13045042575202948 -0.20799055656235718 -0.13896956249002082 -0.18522138145655653 -0.14522850056343323 -0.14389161366045114 -0.17666160509031498 -0.15670748028862796 -0.16311905822226863 -0.16970640605255374 -0.17882901665579604 -0.1616365557331628 -0.15307809662276889 -0.17761460782262389 -0.17878241886193294 -0.16398991659189177 -0.17085570799755243 -0.17905890206399211 -0.16744553165983236 -0.16858869668091248 -0.15428834653878831 -0.17058840514764192 -0.17494916943188951 -0.16437726694838592 -0.19624135756773425 -0.17378782807107182
leaf_weight=530480 9132 138581 173002 230983 28642 26828 33148 59143 52155 220852 155220 45027 173284 68568 104653 2936 194856 38338 150912 40465 34211 38265 36350 72354 308799 371809 400000 33432 84171 169756 320052 30948 98450 173662 169756 94503 7893 10730 37361 23821 11278 21136 65890 233513 271080 63617 102994 173977 17737 82342 39104 19970 63804 115983 293252 176632 71788 196650 55364 467654 22855 168593
leaf_count=530480 9132 138581 173002 230983 28642 26828 33148 59143 52155 220852 155220 45027 173284 68568 104653 2936 194856 38338 150912 40465 34211 38265 36350 72354 308799 371809 400000 33432 84171 169756 320052 30948 98450 173662 169756 94503 7893 10730 37361 23821 11278 21136 65890 233513 271080 63617 102994 173977 17737 82342 39104 19970 63804 115983 293252 176632 71788 196650 55364 467654 22855 168593
internal_value=-0.16667 -0.164409 -0.161561 -0.174291 -0.169052 -0.157453 -0.163756 -0.172855 -0.158635 -0.165338 -0.171197 -0.165365 -0.172297 -0.158975 -0.169423 -0.179255 -0.168777 -0.183761 -0.158423 -0.18564 -0.170039 -0.159693 -0.164964 -0.184362 -0.167017 -0.175806 -0.161087 -0.161298 -0.144936 -0.162399 -0.170509 -0.163221 -0.150733 -0.163712 -0.163919 -0.168054 -0.148579 -0.193012 -0.145792 -0.172831 -0.160426 -0.152974 -0.181159 -0.155517 -0.161291 -0.17529 -0.174686 -0.159729 -0.163988 -0.173272 -0.183659 -0.173576 -0.175133 -0.181192 -0.164908 -0.171331 -0.159029 -0.172641 -0.178039 -0.16556 -0.199133 -0.176179
internal_weight=7.72874e+06 5.96053e+06 3.69464e+06 1.76821e+06 2.26589e+06 1.28684e+06 2.4078e+06 1.56964e+06 1.17584e+06 1.80933e+06 1.24661e+06 1.06085e+06 1.20505e+06 598467 662497 323029 783418 180112 203832 198571 465101 1.08632e+06 165064 189439 857016 542549 814546 466869 110999 412301 597250 186168 131598 1.34423e+06 342758 128714 52920 51195 89516 300037 115931 54568 138244 271778 444742 463193 474803 242545 326536 277198 67746 142917 122947 154321 899487 546566 471788 369934 79185 760906 25791 399576
internal_count=7728741 5960530 3694636 1768211 2265894 1286839 2407797 1569640 1175840 1809330 1246611 1060848 1205046 598467 662497 323029 783418 180112 203832 198571 465101 1086324 165064 189439 857016 542549 814546 466869 110999 412301 597250 186168 131598 1344229 342758 128714 52920 51195 89516 300037 115931 54568 138244 271778 444742 463193 474803 242545 326536 277198 67746 142917 122947 154321 899487 546566 471788 369934 79185 760906 25791 399576
is_linear=0
shrinkage=1


Tree=1
num_leaves=63
num_cat=0
split_feature=0 20 0 13 20 8 116 124 124 0 13 31 31 124 13 8 20 12 116 8 0 2 0 0 26 2 123 77 80 124 20 0 116 80 12 14 2 13 124 69 12 69 8 77 12 77 2 124 8 13 80 116 26 12 8 116 13 30 2 12 0 7
split_gain=70007.1 18184.8 14324.7 13027.1 7714.27 7391.85 6785.34 6537.58 4191.69 3633.07 3492.09 3441.71 3358.08 3051.86 2609.99 2550.81 2543.03 2290.12 2257.49 2281.95 1850.82 1825.81 1790.47 1752.3 1746.5 1689.75 1584.23 1439.43 1327.23 1209.93 1194.58 1154.29 1151.78 1134.63 1112.03 1102.12 1052.74 1020.32 1015.07 993.97 901.451 900.069 899.629 839.16 816.292 797.354 775.38 769.279 767.785 756.03 738.52 715.838 692.262 688.292 659.444 641.235 638.012 618.583 613.224 590.096 580.902 565.012
threshold=1.2757689356803896 -0.38675266504287714 2.262421846389771 0.76479122042655956 -0.42885453999042505 0.10747217759490015 -0.37377816438674921 -0.12618077546358106 -0.066045876592397676 3.04564380645752 1.1129496097564699 0.72052335739135753 0.80784538388252269 0.048769924789667136 1.2649162411689761 0.20338726788759234 -0.49338018894195551 0.059783907607197768 -0.016407728195190426 0.22071065753698352 1.7918243408203127 0.54381704330444347 1.5634640455245974 2.262421846389771 -1.3300326466560362 0.26759240031242376 -3.0500700473785396 1.4452339410781863 1.7502793073654177 0.045453980565071113 -1.7243391275405882 0.9325385093688966 -0.76070684194564808 1.5136380195617678 0.63764804601669323 -0.72782817482948292 0.27052307128906256 0.91930505633354198 -0.088871456682682023 1.5259524583816531 0.48343357443809515 1.1355733871459963 -0.11678842455148696 1.3999434113502505 -0.80987921357154835 1.5551948547363283 0.34420266747474676 0.12363080680370332 -0.67117545008659352 0.6323252022266389 1.1444751024246218 -0.64477252960205067 0.31175997853279119 0.74602505564689647 -0.33522315323352808 -0.23735171556472776 1.2959449887275698 -0.76219138503074635 0.22343078255653384 0.3787879496812821 1.8056728243827822 -0.70112997293472279
decision_type=2 2 2 2 2 2 2 2 2 2 2 2 2 2 2 2 2 2 2 2 2 2 2 2 2 2 2 2 2 2 2 2 2 2 2 2 2 2 2 2 2 2 2 2 2 2 2 2 2 2 2 2 2 2 2 2 2 2 2 2 2 2
left_child=3 2 7 4 13 8 17 22 21 24 20 15 16 26 23 29 36 39 19 47 46 37 -2 43 49 44 -1 -16 -26 -6 -24 -28 -15 -22 -18 -33 59 -3 -20 -5 -14 -19 -23 60 -12 -39 50 -7 -11 -4 -9 -13 -34 55 -25 -27 -32 -38 -29 -8 -10 -17
right_child=1 5 9 6 11 18 12 10 14 48 25 51 40 32 27 61 34 41 38 -21 33 42 30 54 28 53 31 58 -30 -31 56 35 52 -35 -36 -37 57 45 -40 -41 -42 -43 -44 -45 -46 -47 -48 -49 -50 -51 -52 -53 -54 -55 -56 -57 -58 -59 -60 -61 -62 -63
leaf_value=-0.0083751530470798884 -0.0075440272359815616 -0.004443297806054766 -0.028197379733162109 0.02219052595439569 0.00307722059223211 0.0058081191148684659 0.016239394991690279 -0.0067076084297372374 0.00075538085994061649 -0.053592546717042722 0.021090516570030284 0.020905095291656253 0.021894757870527325 0.010889224112924305 0.0051387705011306864 0.021266169940676965 0.012574418410183644 0.010514636237878735 -0.001277707895392237 0.029594056051729552 -0.012875635374804635 -0.011861067324838766 -0.019376501334698537 -0.01511525573128397 -0.021539908127354478 0.008797841426245144 0.0069074597845238637 0.040590076008330922 -0.011278353641527064 0.0069060516123291811 -0.012304177206134716 0.00068302595432195097 0.00018260652080708906 -0.0063230698632396583 0.007148843379089543 -0.0030646805452271431 -0.0022743458570569975 0.0002772434192437539 0.0059129654757101857 0.038472040715881416 0.012364347490446863 0.018027184947252459 -0.0054585052915980103 0.0069547005073595141 0.0057225574038800298 0.024114182412119513 -0.004851012890436452 0.016110931759444076 -0.032347045646640891 -0.018102158200753237 0.0011681278253887343 0.011441675167913645 0.0042649805948337983 -0.0030897786910424273 -0.0047351925954269708 -5.5137064750069927e-05 -0.0059208019292907709 0.0033493093241732394 0.016298146606760999 0.0060995728545064241 -0.0033327332948008079 0.010332258616960594
leaf_weight=70749 388478 352985 36520 55709 612613 55131 20424 40389 318416 6112 11325 23310 38703 49506 97997 25700 149833 87780 73968 16456 106645 109924 53619 23222 42083 27140 48450 3172 125452 311129 232310 425856 158149 173636 255490 363723 60192 107080 145855 11272 69145 73057 109546 43062 36463 3627 654852 26989 13990 37693 113168 140077 302440 148553 44864 83022 47081 260614 14367 48244 119509 21875
leaf_count=70749 388478 352985 36520 55709 612613 55131 20424 40389 318416 6112 11325 23310 38703 49506 97997 25700 149833 87780 73968 16456 106645 109924 53619 23222 42083 27140 48450 3172 125452 311129 232310 425856 158149 173636 255490 363723 60192 107080 145855 11272 69145 73057 109546 43062 36463 3627 654852 26989 13990 37693 113168 140077 302440 148553 44864 83022 47081 260614 14367 48244 119509 21875
internal_value=-3.25109e-06 -0.00454482 -0.00735081 0.00498293 0.00300465 -0.000539136 0.0094516 -0.00598604 -0.00215783 -0.018383 -0.00398779 0.00607773 0.0075055 0.000547041 0.000669223 0.00494833 0.00638208 0.0171623 0.00631273 0.0125998 -0.00531507 -0.00490812 -0.00985019 -0.000768077 -0.0166846 0.000726632 -0.00119026 0.00749989 -0.013856 0.00436683 -0.0125405 -0.000583688 0.00364221 -0.0088163 0.00915449 -0.00104337 0.00349684 -0.00312978 0.00349336 0.0249306 0.0157846 0.0139271 -0.00866533 0.000294639 0.00936466 0.00105826 -0.00410116 0.00919425 -0.0388072 -0.0230701 -0.000903341 0.0127918 0.00286326 -0.000868908 -0.0082756 0.00212588 -0.0112285 0.00229414 0.0206919 0.00911556 -0.000360248 0.0162389
internal_weight=7.72874e+06 4.0447e+06 2.37853e+06 3.68404e+06 2.55358e+06 1.66617e+06 1.13046e+06 2.11668e+06 1.34777e+06 261850 1.39519e+06 1.1347e+06 902645 1.41887e+06 664609 971317 794797 227818 318399 98576 1.08869e+06 683162 721488 549073 241748 306503 908778 115536 167535 923742 333010 838029 510095 280281 405323 789579 389474 463692 219823 66981 107848 160837 219470 480987 47788 110707 808409 82120 20102 74213 153557 163387 460589 258715 68086 110162 279391 320806 17539 68668 437925 47575
internal_count=7728741 4044701 2378531 3684040 2553577 1666170 1130463 2116681 1347771 261850 1395193 1134704 902645 1418873 664609 971317 794797 227818 318399 98576 1088690 683162 721488 549073 241748 306503 908778 115536 167535 923742 333010 838029 510095 280281 405323 789579 389474 463692 219823 66981 107848 160837 219470 480987 47788 110707 808409 82120 20102 74213 153557 163387 460589 258715 68086 110162 279391 320806 17539 68668 437925 47575
is_linear=0
shrinkage=0.05


Tree=2
num_leaves=63
num_cat=0
split_feature=0 20 0 13 8 20 116 26 81 31 0 31 13 31 117 87 20 123 27 8 81 117 117 0 81 13 2 86 14 20 31 117 8 87 14 117 69 117 13 12 81 2 2 116 10 0 12 69 81 69 81 117 14 117 81 118 31 20 9 0 26 87
split_gain=63181.4 16467.5 12621.4 11802 7147.73 6672.05 6322.41 4801.69 4118.57 5437 3176.83 3173.16 3162.28 3121.99 2541.72 2457.03 2449.88 2411.8 2209.66 2143.07 2134.5 2016.99 1927.15 1910.38 1844.3 1741.48 1677.31 1547.62 1421.02 1333.95 1230.36 1151.89 1148.31 1122.01 1119.38 1028.89 1025.98 1020.96 990.574 970.183 961.453 901.811 889.993 815.279 801.536 785.947 774.566 767.344 759.108 753.004 730.342 722.26 693.324 691.003 689.764 688.937 685.731 676.024 657.086 648.784 630.954 623.903
threshold=1.2757689356803896 -0.45766511559486384 2.2572900056838994 0.7133924961090089 0.10747217759490015 -0.47173868119716639 -0.37377816438674921 -0.85301244258880604 0.55824086070060741 1.1993008255958559 3.04564380645752 0.80784538388252269 1.1468210220336916 0.49951894581317907 -0.21142850071191785 0.53382289409637462 -0.45057368278503412 -1.4207244515419004 -0.9579358398914336 0.20338726788759234 0.62651312351226818 0.79185950756073009 -1.1292610764503477 0.9325385093688966 0.55824086070060741 1.0254737138748171 0.26759240031242376 2.254692912101746 -0.73401853442192067 -1.88991242647171 0.48865428566932684 -0.35633946955204004 0.2296431437134743 -0.15904933214187619 -0.75812342762947071 1.1255357265472414 1.6286175251007082 0.41272433102130895 0.34719528257846838 0.61122947931289684 -0.28369945287704462 0.34420266747474676 0.4088407307863236 -0.41880917549133295 0.36040054261684423 1.9121643304824831 -0.6264074146747588 1.1355733871459963 -0.2664040327072143 2.1936870813369755 -0.38677585124969477 -0.32058328390121454 -0.67966008186340321 1.6073736548423769 0.016885399818420414 1.4924994707107546 0.99412477016448986 -1.7753465771675108 -0.034360958263278001 2.8373855352401738 -0.94558498263359059 -0.29477664828300471
decision_type=2 2 2 2 2 2 2 2 2 2 2 2 2 2 2 2 2 2 2 2 2 2 2 2 2 2 2 2 2 2 2 2 2 2 2 2 2 2 2 2 2 2 2 2 2 2 2 2 2 2 2 2 2 2 2 2 2 2 2 2 2 2
left_child=3 2 7 5 8 17 14 21 9 18 20 16 24 19 36 30 37 35 48 52 33 40 49 -19 34 45 46 51 56 -23 50 -13 -17 -4 41 55 -5 44 -22 -18 -2 -9 -27 -15 -8 -20 -14 -16 -3 -11 -6 -10 -7 -12 -24 -1 -25 -37 -52 -29 -35 -36
right_child=1 4 10 6 15 13 11 12 27 22 53 31 26 43 47 32 39 23 25 -21 38 29 54 28 -26 42 -28 59 -30 -31 -32 -33 -34 60 61 57 -38 -39 -40 -41 -42 -43 -44 -45 -46 -47 -48 -49 -50 -51 58 -53 -54 -55 -56 -57 -58 -59 -60 -61 -62 -63
leaf_value=-0.0023454425290869198 0.00055015985077737221 -0.00059331897784659809 -0.020015236919393595 0.021308780422649404 0.0093697938872615693 0.0050140233044416701 0.012778088211144525 0.00078531900875913538 -0.0028472386215644923 0.023872264205321125 -0.031572668386210867 0.023113515328638434 0.018961856666903625 0.017623839247288529 0.0093283711984085971 0.013967668061067966 0.011849750245612831 0.008406314482909464 -0.0013704785850394822 0.014947001550865266 -0.031160697979930908 -0.022490373042751186 0.012493345306493465 0.0018010948783789456 -0.012776846589126071 0.0085543884734499923 -0.0014566409005042874 -0.01750814877728199 -0.0014137707912813423 -0.011959510935092345 0.013066883947806597 0.011755261899640828 0.037046278615187438 -0.014986200554814944 -0.010788457631597586 -0.016609502406938245 0.039685997011258023 0.001377834711580218 -0.019087891120676909 0.0068456460796419843 -0.0083772553460222422 -0.0044297203054198177 0.0010159346196800644 0.009554446420129023 0.0045249527253025884 -0.0052190370236498045 0.004792003095249138 0.016169657619667249 -0.0074641104235550274 0.077375029192483818 0.0024245175415930471 -0.010400344290147882 0.0022192290601707357 -0.052865230642902411 0.0030259059116182329 0.011798632253335849 0.007423211764255512 -0.0060359091556206673 -0.022210407370220259 -0.038485939425470211 -0.0072143793539671654 -0.0059723778094267566
leaf_weight=151469 34368 48984 38895 70968 41036 490227 37379 101371 48778 14913 13737 30331 13441 38277 91330 24880 151122 88187 577824 44866 24694 35903 33168 467836 83070 52462 247148 19964 431244 185181 35896 84549 6881 41953 78976 18596 8506 268276 54485 269782 246195 454843 154338 171815 138163 172194 34147 74369 224229 688 229453 90151 405455 5275 45815 9128 61350 80815 2739 4521 69189 452916
leaf_count=151469 34368 48984 38895 70968 41036 490227 37379 101371 48778 14913 13737 30331 13441 38277 91330 24880 151122 88187 577824 44866 24694 35903 33168 467836 83070 52462 247148 19964 431244 185181 35896 84549 6881 41953 78976 18596 8506 268276 54485 269782 246195 454843 154338 171815 138163 172194 34147 74369 224229 688 229453 90151 405455 5275 45815 9128 61350 80815 2739 4521 69189 452916
internal_value=-3.08804e-06 -0.00431758 -0.00721608 0.00473378 -0.000805951 0.00273662 0.00874393 -0.00587571 -0.00230204 -0.00137811 -0.0178403 0.00694673 -0.00443077 0.005514 0.0159247 0.00572474 0.00590949 0.000294544 -0.0022664 0.00428307 -0.0162113 -0.0100981 0.0101738 0.0013634 -0.00559576 -0.00113397 0.000198466 -0.00979128 0.000716712 -0.0136697 0.00436405 0.0147542 0.0189679 -0.012706 -0.00504752 -0.00401615 0.0232758 0.00331772 -0.0228532 0.00864234 -0.00728366 -0.00347926 0.00292835 0.0110247 0.00628237 -0.00225406 0.00879435 0.0123989 -0.00623227 0.0262325 0.00322067 -0.00774849 0.00374889 -0.0374809 0.00700172 -0.00154148 0.00245289 -0.00801389 0.00213389 -0.0213819 -0.0101481 -0.00668749
internal_weight=7.72874e+06 4.0447e+06 2.21579e+06 3.68404e+06 1.82891e+06 2.45926e+06 1.22478e+06 1.96756e+06 1.48803e+06 1.32462e+06 248228 979602 1.46591e+06 1.15064e+06 245173 340885 864722 1.30862e+06 1.23003e+06 940548 229216 501647 94584 1.04862e+06 1.17118e+06 956818 294736 163414 960430 221084 309124 114880 31761 150037 1.08811e+06 260008 79474 443818 79179 420904 280563 556214 206800 210092 175542 750018 47588 165699 273213 15601 273228 138929 895682 19012 78983 160597 529186 99411 232192 24485 111142 531892
internal_count=7728741 4044701 2215787 3684040 1828914 2459265 1224775 1967559 1488029 1324615 248228 979602 1465912 1150640 245173 340885 864722 1308625 1230031 940548 229216 501647 94584 1048617 1171176 956818 294736 163414 960430 221084 309124 114880 31761 150037 1088106 260008 79474 443818 79179 420904 280563 556214 206800 210092 175542 750018 47588 165699 273213 15601 273228 138929 895682 19012 78983 160597 529186 99411 232192 24485 111142 531892
is_linear=0
shrinkage=0.05


Tree=3
num_leaves=63
num_cat=0
split_feature=0 81 124 124 116 0 117 13 29 13 8 117 81 12 124 2 2 13 117 1 12 0 117 117 123 117 13 2 87 29 87 31 77 117 8 6 76 31 31 87 117 13 2 124 13 8 116 81 13 8 123 81 77 14 26 86 10 14 39 87 2 2
split_gain=57021.3 14956 11820.3 10921.2 5753.9 5649.16 5613.77 4898.94 4152.16 3480.65 3205.36 3156.22 2960.97 2844.8 2757.1 2271.55 1902.09 1815.93 1700.87 1646.19 1464.75 1439.69 1531.89 1438.47 1386.33 1352.58 1326.2 1243.99 1229.56 1217.65 1189.46 1126.07 1091.27 1088.79 1055.82 1020.13 927.578 890.728 887.374 883.333 817.552 799.138 785.3 750.043 753.71 781.529 744.618 733.172 704.791 698.202 697.889 697.561 690.137 675.489 645.741 641.336 594.522 591.047 922.593 585.093 581.291 578.523
threshold=1.2757689356803896 0.55824086070060741 -0.066045876592397676 0.045453980565071113 -0.72445750236511219 2.580517172813416 -0.27206811308860773 0.66258445382118236 1.8254507184028628 0.81525036692619335 0.10747217759490015 0.46286688745021826 -0.32041299343109125 0.54864636063575756 -0.38702294230461115 0.55906713008880626 0.29498901963233953 0.74461823701858532 0.16763019561767581 -2.907912969589233 0.13170710206031802 0.87628367543220531 0.84654876589775097 0.36384454369544988 -3.0500700473785396 0.69596606492996227 1.4055292606353762 0.54381704330444347 -0.15025123953819272 1.6280439496040346 0.44518661499023443 -1.9394690990447996 1.3515728116035464 -0.54867440462112416 0.10747217759490015 1.8899340629577639 -0.47176937758922571 0.94857439398765575 -1.6170787811279295 -0.087426960468292222 0.6337847411632539 1.251179099082947 0.34920476377010351 -0.35321483016014094 1.8082759976387026 -0.14453516900539395 -0.37377816438674921 0.02527260780334473 0.32991215586662298 0.1959507688879967 -0.7209838032722472 -0.34775340557098383 1.4211744666099551 -1.4240748882293699 1.0933755636215212 1.8805027604103091 0.37156717479228979 -2.0160024166107173 1.1603531837463381 0.44518661499023443 0.49306993186473852 0.4924065917730332
decision_type=2 2 2 2 2 2 2 2 2 2 2 2 2 2 2 2 2 2 2 2 2 2 2 2 2 2 2 2 2 2 2 2 2 2 2 2 2 2 2 2 2 2 2 2 2 2 2 2 2 2 2 2 2 2 2 2 2 2 2 2 2 2
left_child=3 2 12 7 33 11 8 21 26 23 15 43 20 16 27 17 32 47 29 53 -2 -1 46 37 -24 41 34 -14 -13 -11 38 -27 -9 -5 61 -18 57 -6 -12 -29 -21 54 -22 -3 45 -45 -23 -8 -30 -35 -25 -15 -19 -7 -16 -17 -43 58 -10 -44 -28 -4
right_child=1 5 6 4 9 19 10 13 36 18 30 28 14 51 25 55 35 52 -20 40 42 22 24 50 -26 31 60 39 48 -31 -32 -33 -34 49 -36 -37 -38 -39 -40 -41 -42 56 59 44 -46 -47 -48 -49 -50 -51 -52 -53 -54 -55 -56 -57 -58 -59 -60 -61 -62 -63
leaf_value=0.010127095781293198 0.0095966473445858336 -0.011559142092310286 0.0026371492122874269 0.024646321030792898 0.0062566806196793778 -0.022031484101031815 -0.0016796568306688732 0.013964124434563989 0.046652578362185761 0.012574372597907653 -0.0065546720947681578 -0.024804483446173253 -0.0080446065626817147 0.0073818973640096142 -0.0042253785516657072 -0.0051793057231842117 0.0056678401783466061 0.0003816825631635948 0.0079644713717034032 -0.016103263492783192 0.0033631754221839748 0.0055339230880795884 -0.0091285512951646466 -6.789276032774184e-05 -0.00080654581698628232 -0.016420541131322072 0.01550449064667375 -0.024094879990870635 -0.017198358990553074 0.024182455651422786 0.01347359346026601 -0.0069789241532927163 0.030635202812127806 0.011286186578821911 0.0070146257386540616 0.018893240707622678 0.01498714465940067 0.012898691506919677 0.0033501722414479591 -0.01273156001579571 -0.029029057255750137 0.012657781555798255 -0.00483317123635571 -0.0096230755535473816 0.0043890790453949185 -0.0025210010428810942 0.0011499707240803167 -0.0050816517399239654 -0.010696176389126691 0.018392625147395352 0.0042594100574827225 0.0025021382363848233 0.0083542810210088629 -0.044554983503876787 -0.0090479586730720235 -0.011191880628998204 -0.0011773807421809352 0.025157085784119931 0.20017321816701206 0.0092566735887625665 0.0055377432081550231 -0.0024913074143289716
leaf_weight=38467 30796 47580 108719 32485 317560 4487 310314 67038 2378 129519 25393 25619 177726 89586 516885 96791 149482 327415 251378 32421 47897 112652 54912 120678 564513 33965 26339 19849 66013 27366 26363 449917 11501 76835 72113 16157 39003 60018 206495 123651 19650 8532 132668 69846 21063 86973 690961 323459 113067 62835 408770 401327 29598 12911 80183 81869 86361 8305 102 7801 32912 111272
leaf_count=38467 30796 47580 108719 32485 317560 4487 310314 67038 2378 129519 25393 25619 177726 89586 516885 96791 149482 327415 251378 32421 47897 112652 54912 120678 564513 33965 26339 19849 66013 27366 26363 449917 11501 76835 72113 16157 39003 60018 206495 123651 19650 8532 132668 69846 21063 86973 690961 323459 113067 62835 408770 401327 29598 12911 80183 81869 86361 8305 102 7801 32912 111272
internal_value=-2.93336e-06 -0.0041017 -0.00296027 0.00449709 0.00780533 -0.0122006 -0.000163405 0.00225689 0.00506269 0.00668026 -0.0016318 -0.010064 -0.00594065 0.00558636 -0.00673528 -0.00274512 0.00999673 -0.00180935 0.0105141 -0.0254305 -0.000512656 0.000582262 0.000324246 0.00495461 -0.0015443 -0.00561375 0.00314777 -0.0108406 -0.0145588 0.0145993 0.00340969 -0.00764167 0.0164055 0.0164011 0.00176424 0.00695793 0.0185762 0.00731248 0.00226551 -0.0143034 -0.0209812 -0.00419563 -0.00216546 -0.00598298 -0.00449144 -0.00568425 0.00176453 -0.00341594 -0.0130931 0.0144833 0.00327307 0.00339265 0.00104266 -0.0387465 -0.00487303 -0.00793454 6.65229e-05 0.031555 0.0529766 -0.00405064 0.00996839 4.31403e-05
internal_weight=7.72874e+06 4.0447e+06 3.54507e+06 3.68404e+06 1.48744e+06 499630 1.82884e+06 2.1966e+06 401143 1.31529e+06 1.4277e+06 430161 1.71623e+06 735091 1.49707e+06 1.16945e+06 244178 990786 408263 69469 219162 1.4615e+06 1.42304e+06 907026 619425 1.17584e+06 351355 321226 204699 156885 258251 483882 78539 172155 292104 165639 49788 377578 231888 143500 52071 691961 188366 225462 177882 156819 803613 633773 179080 139670 529448 490913 357013 17398 597068 178660 94893 10785 2480 140469 59251 219991
internal_count=7728741 4044701 3545071 3684040 1487444 499630 1828840 2196596 401143 1315289 1427697 430161 1716231 735091 1497069 1169446 244178 990786 408263 69469 219162 1461505 1423038 907026 619425 1175843 351355 321226 204699 156885 258251 483882 78539 172155 292104 165639 49788 377578 231888 143500 52071 691961 188366 225462 177882 156819 803613 633773 179080 139670 529448 490913 357013 17398 597068 178660 94893 10785 2480 140469 59251 219991
is_linear=0
shrinkage=0.05


Tree=4
num_leaves=63
num_cat=0
split_feature=83 20 2 26 13 31 116 20 26 12 116 1 1 20 118 14 5 117 20 1 14 2 20 31 21 26 1 13 77 13 13 1 1 116 76 2 117 13 20 117 116 26 12 20 3 77 13 117 6 13 118 117 1 31 13 13 123 2 117 1 5 3
split_gain=37499.2 16323.3 12741.2 7575.84 7183.12 7124.52 6971.8 5423.14 4345.88 4057.34 3728.66 3174.58 2702 2690.17 2656.64 2627.75 2071.27 2017.25 1984.29 2085.28 1717.44 1640.26 1569.56 1552.74 1416.92 1406.99 1395.38 1390.07 1293.02 1282.59 1260.84 1213.79 1018.36 927.96 921.052 918.749 901.913 895.828 867.499 843.855 838.877 806.44 794.826 741.277 733.531 723.103 695.156 682.163 681.657 659.097 654.272 645.674 624.733 595.35 594.066 575.968 570.51 545.801 542.061 522.364 519.529 516.899
threshold=0.17537444829940799 -0.089053489267826066 0.35285486280918127 -1.3621101379394529 1.078890919685364 0.83267232775688182 -0.72445750236511219 -0.23708310723304746 -0.94558498263359059 0.41135381162166601 -0.72445750236511219 -2.2916197776794429 -0.81178727746009816 -1.2567105293273924 1.3163289427757265 -0.48984521627426142 -0.048906343057751649 -1.1292610764503477 -1.1572014093399046 -0.71766686439514149 -1.1763162612915037 0.49558176100254064 -1.7753465771675108 0.49951894581317907 -0.34792023897171015 -2.22275698184967 -2.4524883031845088 0.96808326244354259 1.3515728116035464 0.7133924961090089 0.88444802165031444 -1.925974905490875 -2.8019684553146358 -0.29719305038452143 -0.39535397291183466 0.1959745138883591 0.32452508807182318 0.91930505633354198 -1.5904628634452818 0.58344513177871715 -0.55512875318527211 -0.25304394960403437 0.46138796210289007 -1.4482272267341612 0.99384245276451122 1.5551948547363283 0.62610852718353283 0.26289370656013494 2.9014556407928471 0.75144347548484813 1.5459468364715578 -0.062233567237853997 -2.2916197776794429 0.59105172753334057 0.78069689869880687 1.9253193736076357 -1.8425484895706175 0.26194685697555548 0.058474849909543998 -1.9424577355384824 0.17988561838865283 2.0487091541290288
decision_type=2 2 2 2 2 2 2 2 2 2 2 2 2 2 2 2 2 2 2 2 2 2 2 2 2 2 2 2 2 2 2 2 2 2 2 2 2 2 2 2 2 2 2 2 2 2 2 2 2 2 2 2 2 2 2 2 2 2 2 2 2 2
left_child=1 2 4 13 15 10 12 11 22 28 16 20 -4 25 29 23 -3 45 24 49 35 27 44 39 58 61 -15 59 55 -12 52 -17 -22 60 -32 -5 -23 -16 -14 57 -19 -33 -29 -38 -8 -7 -24 -25 -40 -20 -42 -27 -9 -54 -35 -6 -41 -1 -10 -13 -28 -2
right_child=3 5 6 7 9 17 8 30 18 -11 14 21 38 26 37 31 -18 40 19 -21 32 36 46 47 -26 51 33 42 -30 -31 34 41 -34 54 -36 -37 43 -39 48 56 50 -43 -44 -45 -46 -47 -48 -49 -50 -51 -52 -53 53 -55 -56 -57 -58 -59 -60 -61 -62 -63
leaf_value=0.0075674704111119142 -0.03077824721852869 0.0090195427259827359 0.00053278052269537261 0.013666511745757216 0.011913737547302468 0.023634445013972577 -0.014481838099081263 -0.0086679293072147359 -0.00083787270151573247 0.0056741828505698878 0.0047155187026454437 -0.0086484175019689129 0.0035000502974680187 -0.021497747950848183 -7.8329617502162998e-05 -0.0075849087450751626 0.023352397547074022 0.020833680764246961 -0.0039131239390568142 0.0023117723941667632 -0.029140431153744997 -0.0053282095925872922 -0.010284832539748448 0.0096649617140980894 -0.011377931003754537 -0.01080462485149824 -0.0027547471638700279 0.0053638621500485331 0.027102787182612966 0.0090347825269662656 0.013812288639410206 -0.0036749603005246144 -0.015265337473487248 -0.012956134155744559 0.0019447953578872372 -0.0084947859284194901 -0.014429996576490411 0.0051366999038836448 0.015888892971586081 -0.0034630757666770937 0.013687662281908507 0.00083126470201555871 -0.0020767327224219911 -0.0080871046695022812 -0.029826018894967988 0.043571944984417389 -0.0047700202901100964 0.004507064107967155 0.038119806197250389 -0.000695060650366436 0.0059954256066772462 -0.020939724660871434 -0.0023248987555591905 0.0030930518639602014 -0.0067202542786219165 0.02068333701405119 0.0013078303432585091 0.002844281295802185 -0.0056711853911593319 -0.0043306445201219471 0.019974409777131916 -0.05681453952683016
leaf_weight=72105 11550 71891 63472 5429 73823 23716 28476 31628 91500 266500 490458 84038 14180 23303 313980 63736 38818 30426 457942 279519 16837 258974 130070 91897 84914 23223 29640 51511 23876 264607 18094 131942 61652 84482 169600 33744 58596 111622 55725 71699 106802 401142 118369 215400 10723 5628 101926 211981 3676 243835 37301 48621 272318 62304 69714 25089 497108 403210 158501 420867 2747 2284
leaf_count=72105 11550 71891 63472 5429 73823 23716 28476 31628 91500 266500 490458 84038 14180 23303 313980 63736 38818 30426 457942 279519 16837 258974 130070 91897 84914 23223 29640 51511 23876 264607 18094 131942 61652 84482 169600 33744 58596 111622 55725 71699 106802 401142 118369 215400 10723 5628 101926 211981 3676 243835 37301 48621 272318 62304 69714 25089 497108 403210 158501 420867 2747 2284
internal_value=-2.78626e-06 0.00217669 0.000531381 -0.00556824 0.00293937 0.00664258 -0.0027279 -0.00439797 -0.00366206 0.00913907 0.00527123 -0.00613436 0.00809179 -0.0130094 0.00444851 0.0016984 0.0140451 0.0153289 -0.00247452 -0.00134035 -0.0139742 -0.00537057 -0.00942557 0.00292132 -0.00579762 -0.0204756 -0.00996165 -0.00373297 0.0166592 0.00622918 -0.000243317 -0.00106374 -0.0182418 -0.00852083 0.00308887 -0.00542329 -0.00744391 0.0012894 0.0146122 0.00200583 0.0132895 -0.000284048 0.000179376 -0.0094436 -0.0186795 0.0274586 -0.00786196 0.0060669 0.0172648 -0.002795 0.0116966 -0.0176637 -0.001951 -0.0013161 -0.0101369 0.0141382 0.000706441 0.0035608 -0.00390222 -0.00504932 -0.000826696 -0.0350776
internal_weight=7.72874e+06 5.55382e+06 4.05857e+06 2.17492e+06 2.33411e+06 1.49525e+06 1.72446e+06 1.87936e+06 1.58741e+06 389288 1.29138e+06 1.32542e+06 137053 295564 1.18067e+06 1.94482e+06 110709 203873 1.31621e+06 981296 117662 1.20776e+06 271195 1.348e+06 334915 85678 209886 674785 122788 755065 553944 596820 78489 186583 187694 39173 532970 425602 73581 1.04412e+06 174529 533084 169880 273996 39199 29344 231996 303878 59401 701777 144103 71844 366250 334622 154196 98912 568807 475315 250001 504905 32387 13834
internal_count=7728741 5553816 4058567 2174925 2334108 1495249 1724459 1879361 1587406 389288 1291376 1325417 137053 295564 1180667 1944820 110709 203873 1316211 981296 117662 1207755 271195 1348000 334915 85678 209886 674785 122788 755065 553944 596820 78489 186583 187694 39173 532970 425602 73581 1044122 174529 533084 169880 273996 39199 29344 231996 303878 59401 701777 144103 71844 366250 334622 154196 98912 568807 475315 250001 504905 32387 13834
is_linear=0
shrinkage=0.05


Tree=5
num_leaves=63
num_cat=0
split_feature=0 81 116 31 13 0 8 31 0 13 8 30 22 0 13 77 87 29 14 13 8 0 26 8 27 26 37 9 95 81 13 13 8 87 21 13 122 93 87 37 30 29 77 30 8 64 18 0 13 81 8 13 81 22 14 14 14 69 8 21 81 8
split_gain=46994.7 12916.5 9184.14 7322.74 6444.47 4752.34 4681.87 3988.59 3552.45 3388.48 2622.28 2470.53 2298.92 2253.45 2134.08 2129.69 2059.65 1931.46 1762.89 1761.24 1758.25 1508.9 1455.68 1440.83 1419.44 1234.69 1164.52 1157 1051.04 990.992 989.48 929.439 911.028 910.858 894.045 869.412 867.299 834.17 799.926 789.407 784.831 764.064 746.701 729.802 716.245 707.848 669.788 640.008 631.66 630.458 622.533 620.642 614.633 572.692 545.312 539.527 520.325 503.552 498.149 496.513 495.909 486.343
threshold=1.2757689356803896 0.5788220763206483 -0.54197669029235829 0.75816485285758983 0.66258445382118236 2.5947278738021855 0.037663171067833907 0.99412477016448986 1.8172044754028323 0.91930505633354198 0.20731524378061297 -0.42796187102794642 -0.78899058699607838 0.93776828050613414 0.47807089984416967 1.6539640426635744 0.66590809822082531 1.4208099842071535 -0.9261413812637328 0.68387266993522655 -0.021002402529120442 3.1078096628189091 -0.43485456705093378 0.21449922025203708 -0.13201742619276044 -1.2704942822456358 0.4068432897329331 -0.54012829065322865 -0.69448241591453541 0.046077966690063484 0.23971275240182879 0.47257052361965185 0.20338726788759234 -0.1359993517398834 1.2061318159103396 0.75839731097221386 1.3462281823158266 -1.1597664356231687 -0.11599844694137572 0.46082225441932684 -1.4179612398147581 1.1696241497993471 1.7196494340896609 -0.61802482604980458 0.25419466197490698 -0.74885565042495716 0.34308098256587988 3.1078096628189091 1.8454989790916445 -0.26111918687820429 -0.14842464774847028 1.1468210220336916 -0.39321368932723993 -0.20098351687192914 -0.31764310598373408 -1.5269350409507749 -1.4791350960731504 1.8338372111320498 0.037663171067833907 0.19677851349115374 -0.2664040327072143 -0.39675985276699061
decision_type=2 2 2 2 2 2 2 2 2 2 2 2 2 2 2 2 2 2 2 2 2 2 2 2 2 2 2 2 2 2 2 2 2 2 2 2 2 2 2 2 2 2 2 2 2 2 2 2 2 2 2 2 2 2 2 2 2 2 2 2 2 2
left_child=2 3 10 6 11 14 8 24 19 20 17 40 27 -13 33 37 22 51 41 43 29 30 31 -18 59 35 -21 -8 48 42 -7 -14 -24 -3 44 47 54 -11 -31 56 -4 -15 -5 -2 -12 -28 -16 -10 -26 -33 -27 -1 -19 -45 -20 -17 -9 -29 -39 -6 -37 -32
right_child=1 5 4 9 7 21 12 39 25 15 34 13 16 18 46 55 23 52 36 26 -22 -23 32 -25 28 50 45 57 -30 38 61 49 -34 -35 -36 60 -38 58 -40 -41 -42 -43 -44 53 -46 -47 -48 -49 -50 -51 -52 -53 -54 -55 -56 -57 -58 -59 -60 -61 -62 -63
leaf_value=0.0057833304869167532 -0.0083179036144494199 -0.02358331350134335 -0.0076322400197542913 0.00058503184123181648 0.0037685110545201844 -0.032849465039416263 -0.004082415461744847 0.018027328704502459 -0.014267867529663006 0.0136192373604931 0.016686692587668108 0.0081777590649922266 -0.0061769047825890669 0.0030950772875268889 -0.0089887737809430119 0.037835749021847075 0.0062605762546959487 0.026133352358556058 2.3040064176019835e-06 -0.0026454196189438116 0.0062253978380093977 -0.049931353214546587 0.0012709417516633867 0.028846008760974685 0.0099554347255137159 -0.0085148258719749109 0.019327866912993309 -0.012655976825369973 0.0059519441299882032 -0.010661776365062719 -0.024817503247400188 0.0060325980793539949 0.011154868834023906 -0.012664519369282963 -0.0045010460617239271 0.0036363033164259458 0.0023124256156681279 0.0035499529120863946 -0.0025006034324571626 0.024506229547253892 -0.0010492200343092198 0.0078975698650759537 0.016373643854052388 -0.0060309077674258532 0.027563689351660814 0.0018968405678406908 -0.003792886089335696 -0.041420249716410146 0.020752160994165686 -0.0019035842406992408 -0.004873035523273176 0.012928996128976886 0.014042105882799721 -0.00328477991512224 -0.0037654759823804377 0.018340319593222191 0.010578154051979718 -0.0310636046666883 0.012731147497027574 -0.0031325621989852486 -0.0091236203426174663 -0.014001257777384516
leaf_weight=213690 141048 22612 51496 109923 509878 15287 98170 35318 93432 34021 89139 154151 118583 552903 144878 6205 27167 14130 409531 505628 85935 5216 378776 9542 85412 249733 6126 25078 387043 38180 16715 31390 24843 123044 4384 8959 352775 108889 140586 17667 374851 97414 8036 321935 18233 118210 108462 2222 16102 123410 221383 35427 41048 462787 125447 8295 69739 4362 17094 27467 50721 27489
leaf_count=213690 141048 22612 51496 109923 509878 15287 98170 35318 93432 34021 89139 154151 118583 552903 144878 6205 27167 14130 409531 505628 85935 5216 378776 9542 85412 249733 6126 25078 387043 38180 16715 31390 24843 123044 4384 8959 352775 108889 140586 17667 374851 97414 8036 321935 18233 118210 108462 2222 16102 123410 221383 35427 41048 462787 125447 8295 69739 4362 17094 27467 50721 27489
internal_value=-2.47847e-06 -0.00372349 0.00408337 -0.00270665 0.0031924 -0.0115755 -0.00367729 0.00620824 -0.00489898 0.00256066 0.01108 0.0015573 -0.000508526 0.00241433 -0.00953703 0.00833476 0.000596646 0.00867435 0.00183669 -0.00361881 -7.24895e-05 -0.0241449 -2.88039e-05 0.0121315 0.00518917 -0.00807815 -0.00157939 -0.00668969 0.00713967 -0.00189645 -0.0218838 -0.00284595 0.00187932 -0.0143596 0.0176301 -0.011944 0.00038788 0.00667189 -0.00424366 0.0147271 -0.00184436 0.00381447 0.00166069 -0.00500659 0.0185338 0.00275572 -0.00676429 -0.0148987 0.0116681 -0.000294268 -0.00680352 0.00679954 0.0171386 -0.0044114 -0.000881194 0.0266836 0.0130825 -0.0153836 0.00479575 0.00341575 -0.00720805 -0.0180914
internal_weight=7.72762e+06 4.04437e+06 3.68324e+06 3.58067e+06 3.26719e+06 463703 3.0235e+06 1.14863e+06 2.18218e+06 557164 416051 2.11857e+06 841321 1.69222e+06 398996 174504 713711 304295 1.53807e+06 1.55573e+06 382660 64707 677002 36709 1.0259e+06 626450 629964 127610 488557 296725 59491 273383 403619 145656 111756 155334 887753 160004 178766 122724 426347 650317 117959 925770 107372 124336 253340 95654 101514 154800 471116 249117 55178 784722 534978 14500 105057 29440 125983 537345 59680 44204
internal_count=7727617 4044372 3683245 3580669 3267194 463703 3023505 1148626 2182184 557164 416051 2118568 841321 1692221 398996 174504 713711 304295 1538070 1555734 382660 64707 677002 36709 1025902 626450 629964 127610 488557 296725 59491 273383 403619 145656 111756 155334 887753 160004 178766 122724 426347 650317 117959 925770 107372 124336 253340 95654 101514 154800 471116 249117 55178 784722 534978 14500 105057 29440 125983 537345 59680 44204
is_linear=0
shrinkage=0.05


Tree=6
num_leaves=63
num_cat=0
split_feature=81 124 116 26 20 20 10 117 31 81 10 29 8 81 13 124 8 12 117 117 4 21 116 124 10 13 12 20 12 26 20 86 117 8 14 14 13 20 13 116 86 13 81 8 20 26 38 13 86 81 118 29 8 86 21 116 25 13 117 14 4 8
split_gain=32557.5 19757.8 10135.6 7325.37 7003.71 4604.89 4146.34 4130.84 3775.02 3736.02 3409.45 3170.52 2796.55 2554.66 2445.89 2293.9 2185.65 2001 1991.81 1867.44 1743.94 1714.37 1644 1614.63 1570.58 1504.31 1445.06 1430.2 1320.34 1224.31 1162.91 1141.76 1116.71 1086.91 1046.75 1032.61 1002.97 954.967 913.771 883.554 840.051 831.296 822.658 786.549 758.382 748.33 746.825 736.953 672.857 641.322 578.137 574.924 559.737 549.443 539.63 533.012 528.407 525.153 523.593 522.845 522.198 509.308
threshold=0.19418668746948245 -0.06486570835113524 -0.41393834352493281 -1.4621906280517576 -0.51490136981010426 -0.29408547282218928 0.46401838958263403 0.27324998378753668 1.1197689175605776 0.6830621361732484 0.45570500195026403 1.4208099842071535 0.20731524378061297 -0.34775340557098383 1.1129496097564699 -0.088871456682682023 0.10747217759490015 0.078352097421884551 0.72822713851928722 0.23165768384933474 -0.70170909166336048 -0.13155291974544522 -0.030375242233276364 -0.045737378299236291 0.36610509455204016 2.0188790559768681 0.41865174472332006 -1.5340576171874998 0.27465243637561804 -2.22275698184967 0.13665457814931872 1.5428812503814699 -0.33896428346633906 -0.023756100796163079 -0.75242900848388661 -0.39997442066669459 0.72971719503402721 -1.5149267315864561 0.7726278305053712 -0.72445750236511219 1.8805027604103091 1.5169922113418581 0.76541411876678478 -0.35621684789657587 -1.5149267315864561 -2.22275698184967 3.0995541810989384 1.1346744894981386 1.8805027604103091 -0.14464846253395078 1.0737228989601137 1.1416982412338259 0.25419466197490698 1.8805027604103091 0.023357233963906768 -0.27979576587676996 -0.41859780251979822 0.6323252022266389 0.18989215791225436 -1.882988393306732 -0.67407518625259388 0.21744132786989215
decision_type=2 2 2 2 2 2 2 2 2 2 2 2 2 2 2 2 2 2 2 2 2 2 2 2 2 2 2 2 2 2 2 2 2 2 2 2 2 2 2 2 2 2 2 2 2 2 2 2 2 2 2 2 2 2 2 2 2 2 2 2 2 2
left_child=1 5 11 18 6 10 14 15 16 23 17 12 47 28 34 -5 24 41 45 46 -11 40 39 -9 38 30 -16 48 -7 -20 42 -25 -10 -15 -4 49 -18 -23 -6 61 58 -1 -17 -22 -14 -2 -13 56 -24 -19 -36 -30 -46 -29 -41 -33 -3 -35 -8 -48 -37 -12
right_child=3 2 4 7 8 13 21 9 32 20 22 19 44 33 26 25 36 35 29 -21 43 37 27 31 -26 -27 -28 53 51 -31 -32 55 -34 57 50 60 -38 -39 -40 54 -42 -43 -44 -45 52 -47 59 -49 -50 -51 -52 -53 -54 -55 -56 -57 -58 -59 -60 -61 -62 -63
leaf_value=0.0044853211029558821 -0.020935738608848776 0.0024310636648243551 0.0028054091362601087 -0.0055907963684741283 0.0038929956059419557 0.014575453401664065 0.0016186839217592439 -0.0084883005695423307 0.019760418936044848 -0.025650570240812 -0.00029794117390031513 0.022080057793707395 0.0033921721293819502 -0.002871651761418458 0.015090392409902651 -0.00057364941626869201 0.0047997011716050652 0.0020451570278416874 -0.037633769786548962 0.012174511123739705 -0.018042155283237372 -0.01693737696006099 -0.013493010846747561 -0.0021654520771326744 0.00059346301848957686 0.011931609865276922 0.0048768654686955279 -0.0059469121394860177 0.0028198268031791101 -0.019185123608520864 0.0054841077804237181 -0.003839831306918463 0.010091928501987459 -0.00022712750620898546 0.004624605391336252 -0.018593067164909952 0.0082974013565823759 -0.0060396451837296215 0.011840978835187031 -0.004240650860732084 -0.0069240285183616015 0.018486522873222926 -0.0076723743389794088 -0.0093415533997184101 0.016156206992095284 -0.0095920752105747853 0.065127002552307259 0.011746008066706183 -0.027447679525361448 -0.0019439425060414663 -0.0015012163071513908 0.01060998517877011 0.027887123680483995 -0.012472617132093203 -0.0090880253167780201 -0.010344861143051358 0.006964580963459025 0.0039162608326060167 -0.002390783356872722 0.032574296424180922 -0.0045133675182122092 0.013383689125770301
leaf_weight=37620 17078 108065 465852 256866 127282 35095 137251 290899 41991 26702 53582 42954 10042 282651 48866 269535 582724 159999 10564 68031 35361 27920 43582 330156 445925 26577 118898 172333 156861 60502 69682 53188 103437 197654 43749 6867 316169 71809 50517 393979 66100 14762 48096 97892 64465 97822 1489 49938 10775 272104 321988 27897 12075 39686 67212 77205 158630 124733 200187 7203 160752 7791
leaf_count=37620 17078 108065 465852 256866 127282 35095 137251 290899 41991 26702 53582 42954 10042 282651 48866 269535 582724 159999 10564 68031 35361 27920 43582 330156 445925 26577 118898 172333 156861 60502 69682 53188 103437 197654 43749 6867 316169 71809 50517 393979 66100 14762 48096 97892 64465 97822 1489 49938 10775 272104 321988 27897 12075 39686 67212 77205 158630 124733 200187 7203 160752 7791
internal_value=-2.35432e-06 0.00176541 0.00402036 -0.00596064 0.00295669 -0.00191023 0.000480758 -0.00485726 0.00518708 -0.00704902 -0.00361559 0.0104701 0.00834894 0.00106894 0.00234464 -0.00187917 0.00445196 -0.000940497 -0.0153479 0.0176166 -0.0139876 -0.0032204 -0.00582669 -0.00557204 0.00217777 0.000424308 0.00785188 -0.00902356 0.00568491 -0.0219276 -0.000365301 -0.00373002 0.0128837 -0.00060836 0.00123361 -0.00175907 0.00602996 -0.00909062 0.00615124 -0.00419709 -0.00176964 0.00843118 -0.00164856 -0.0116505 0.016312 -0.0112782 0.0247851 0.00617146 -0.0162593 -0.000466848 -0.000768438 0.00399611 0.018007 -0.00716843 -0.0049471 -0.00769147 0.00512762 0.00137595 -0.00075994 0.0381521 -0.00509022 0.00143881
internal_weight=7.72762e+06 5.95949e+06 3.69356e+06 1.76812e+06 3.17066e+06 2.26594e+06 1.50262e+06 1.58216e+06 1.66804e+06 911403 1.44104e+06 522892 403215 824891 999353 670756 1.52262e+06 652104 185966 119677 159955 503267 788940 751448 623724 413890 167764 266376 219853 71066 387313 460549 145428 605038 831589 599722 898893 99729 177799 522564 403538 52382 317631 133253 86582 114900 51646 316633 54357 432103 365737 184758 76540 212019 461191 130393 266695 322387 337438 8692 167619 61373
internal_count=7727617 5959492 3693557 1768125 3170665 2265935 1502620 1582159 1668045 911403 1441044 522892 403215 824891 999353 670756 1522617 652104 185966 119677 159955 503267 788940 751448 623724 413890 167764 266376 219853 71066 387313 460549 145428 605038 831589 599722 898893 99729 177799 522564 403538 52382 317631 133253 86582 114900 51646 316633 54357 432103 365737 184758 76540 212019 461191 130393 266695 322387 337438 8692 167619 61373
is_linear=0
shrinkage=0.05


Tree=7
num_leaves=63
num_cat=0
split_feature=85 124 81 20 20 20 2 117 116 1 2 81 81 124 8 116 2 2 20 77 20 124 20 20 8 8 77 116 123 117 8 2 124 117 29 119 2 8 1 8 2 117 117 2 77 8 123 77 117 2 21 8 81 117 8 8 117 116 3 6 3 20
split_gain=29479.1 14614.3 7859.25 7146.91 5156.09 4993.13 4032.58 3704.94 3250.9 3245.38 3122.88 2600.28 2331.3 2227.06 2117.32 1958.37 2143.32 1887.13 1482.88 1371.99 1365.42 1350.86 1340.64 1294.36 1278.53 1212.96 1186.79 1162.37 1143.12 1080.28 1070.49 1050.92 960.505 959.649 936.072 912.617 905.136 874.352 865.232 829.358 825.903 825.345 743.662 728.074 719.453 694.083 684.527 655.967 641.502 622.061 617.518 557.083 551.104 541.856 533.971 522.428 514.612 508.761 500.393 492.797 482.201 476.139
threshold=0.17700222134590152 -0.021686039865016934 0.55824086070060741 -0.14991029351949689 -0.58119001984596241 -0.34382124245166773 0.34420266747474676 -0.023845484480261799 -0.39233914017677302 -2.5856031179428096 0.54450199007987987 -0.34775340557098383 0.2712965607643128 -0.091797254979610429 -0.023756100796163079 -0.79392659664154042 0.35285486280918127 0.25338666141033178 -0.79105785489082325 1.3999434113502505 -1.4482272267341612 -0.036437910050153725 -1.6325487494468687 -1.4319911003112791 0.20338726788759234 -0.086748767644166933 1.3894158005714419 -0.61706471443176258 1.9383112192153933 -0.41032338142395014 0.027498830109834674 0.79868987202644359 -0.12616198509931562 -0.52680137753486622 2.2618895769119267 2.2483167648315434 0.61508008837699901 0.20731524378061297 -3.1005463600158687 0.17992350459098819 0.34547489881515508 0.25202614068984991 -0.35633946955204004 0.34420266747474676 1.433354437351227 -0.023756100796163079 -0.7209838032722472 1.3187890052795412 0.02391968667507172 0.42343738675117498 -0.80881133675575245 0.10747217759490015 -0.037022829055786126 -0.25670133531093592 0.21995100378990176 -0.14453516900539395 -1.5623059868812559 -0.75472599267959584 0.65182846784591686 3.0959448814392094 0.66134724020957958 -0.88273921608924855
decision_type=2 2 2 2 2 2 2 2 2 2 2 2 2 2 2 2 2 2 2 2 2 2 2 2 2 2 2 2 2 2 2 2 2 2 2 2 2 2 2 2 2 2 2 2 2 2 2 2 2 2 2 2 2 2 2 2 2 2 2 2 2 2
left_child=1 4 5 7 6 10 33 17 19 29 21 26 15 52 43 -9 46 44 31 37 -18 -2 36 35 34 -25 48 -19 45 -4 -20 -11 -24 47 51 -12 50 53 -31 40 60 -23 -30 -13 -3 -10 -17 -1 -6 -29 -8 -15 -7 -5 -27 -54 -21 -34 -35 -28 -16 -48
right_child=2 3 9 8 11 13 22 12 28 18 23 14 -14 24 39 16 20 27 30 56 -22 41 32 25 -26 54 59 49 42 38 -32 -33 57 58 -36 -37 -38 -39 -40 -41 -42 -43 -44 -45 -46 -47 61 -49 -50 -51 -52 -53 55 -55 -56 -57 -58 -59 -60 -61 -62 -63
leaf_value=0.0034891020434845137 -0.0057265531142756702 0.01250113088151962 -0.0099881234407336802 0.01649323902626738 0.0082721546860021877 0.0002852139484505434 -0.0051471426885425046 0.0092462960338857945 0.0015257356439851337 -0.011961151730635992 -0.01197482520797151 0.0025217957117469464 -0.0043576598087130235 0.00026047659037494391 0.010332680660588015 0.00022073078880548475 -0.0089836774622340659 0.012956946273373611 -0.0089473714322322543 0.041033794367619572 -0.00023355770673759771 0.0011093330775824822 -0.0069274888618483521 -0.011158860095404632 0.015157816710019518 -0.0049096283467194987 0.014271553572157614 0.0061011511436318867 0.016194680366673615 -0.048460135219046088 -0.00068890734777178066 -0.02897596967295998 0.0070596176024753619 0.0044163979354119413 0.013846189158471628 -0.02457028371502714 -0.019653993454625041 0.019999780429533567 -0.024616821235627837 0.0057357803050260159 -0.0013466136712654993 -0.0033452634148165052 0.0085886305089477536 -0.0039355641135424323 0.026857430530003279 0.0066386567205310556 0.002399370050966557 0.018715282506637686 0.003089849925332381 0.0015747720742087983 -0.013532549290423808 0.0049733685203157633 -0.008215892201844226 0.0084572848605108161 0.0095327047134961332 -0.0029673958653019857 0.022094707083875769 -0.0029602143611968004 -0.0012575077830973432 0.073947037684977776 0.0020025167332088359 0.0052893706622214771
leaf_weight=67053 447262 52798 11756 28671 82529 85858 54687 94169 78290 144230 75425 51672 146639 291889 18039 151619 53713 46448 125790 4243 262330 154189 234778 117557 18705 124691 29551 216502 44429 4304 57032 9685 13468 41579 15417 17771 22781 32313 32849 114625 225787 319328 116176 281220 10456 436286 257915 7908 216055 116890 36686 79858 64870 78197 6746 176207 23224 213384 593825 350 470344 318569
leaf_count=67053 447262 52798 11756 28671 82529 85858 54687 94169 78290 144230 75425 51672 146639 291889 18039 151619 53713 46448 125790 4243 262330 154189 234778 117557 18705 124691 29551 216502 44429 4304 57032 9685 13468 41579 15417 17771 22781 32313 32849 114625 225787 319328 116176 281220 10456 436286 257915 7908 216055 116890 36686 79858 64870 78197 6746 176207 23224 213384 593825 350 470344 318569
internal_value=-2.23649e-06 0.00205887 -0.00462934 0.00477602 -0.000456245 -0.00336669 -0.0027756 0.00293564 0.00855383 -0.0111637 -0.0052717 0.00154556 0.00157611 -8.34376e-05 0.000434913 0.00234051 0.00171769 0.00687821 -0.00941562 0.014808 -0.0017207 -0.00375601 -0.00588536 -0.00935017 0.00239044 -0.00746878 0.00547335 0.0055466 0.00701016 -0.0231991 -0.00637114 -0.0130318 -0.00468558 -0.000254992 0.00177359 -0.0143767 -0.0107371 0.0127925 -0.0273792 0.00178776 0.00115409 -0.00189472 0.0106928 -0.00293323 0.0148744 0.00586076 0.00321018 0.00509548 0.00452226 0.00451418 -0.00851393 0.00127291 -0.00315461 0.0106133 -0.00416833 -0.00437971 0.0250207 -0.00236532 -0.000886215 0.0149705 0.00231021 0.00399641
internal_weight=7.72762e+06 5.3462e+06 2.38142e+06 2.56988e+06 2.77632e+06 1.99577e+06 1.28615e+06 1.72805e+06 841829 385646 1.26297e+06 1.49017e+06 1.28495e+06 732804 1.16169e+06 1.13832e+06 1.04415e+06 443094 336737 166648 316043 920779 575784 342190 405869 248994 328485 379840 675181 48909 182822 153915 461630 710365 387164 93196 114154 139181 37153 828795 714170 473517 160605 332892 63254 514576 728103 74961 298584 333392 91373 371747 326935 106868 131437 241077 27467 226852 635404 29901 488383 576484
internal_count=7727617 5346198 2381419 2569877 2776321 1995773 1286149 1728048 841829 385646 1262969 1490172 1284954 732804 1161687 1138315 1044146 443094 336737 166648 316043 920779 575784 342190 405869 248994 328485 379840 675181 48909 182822 153915 461630 710365 387164 93196 114154 139181 37153 828795 714170 473517 160605 332892 63254 514576 728103 74961 298584 333392 91373 371747 326935 106868 131437 241077 27467 226852 635404 29901 488383 576484
is_linear=0
shrinkage=0.05


Tree=8
num_leaves=63
num_cat=0
split_feature=81 124 116 26 20 2 2 8 20 31 124 13 12 14 81 12 8 2 117 8 12 20 13 20 2 14 26 87 86 31 8 117 21 77 77 2 14 87 8 20 12 69 13 26 20 2 26 21 13 14 69 5 14 13 116 8 36 2 118 12 13 1
split_gain=27130.2 16281.8 8548.41 6256.26 6115.54 5589.1 4604.31 3574.93 3512.53 3258.68 2983.88 2833.58 2667.99 2484.72 2350.85 2319.73 2279.09 1845.76 1817.79 1711.3 1645.27 1572.61 1464.43 1438.96 1376.24 1332.68 1326.84 1171.5 1067.31 1034.37 1027.08 1011.9 1009.86 991.31 989.274 974.009 963.358 934.939 918.071 873.299 849.951 837.702 812.101 780.876 727.697 623.305 605.514 602.763 600.683 577.734 569.171 564.994 558.052 520.332 518.689 517.481 513.898 494.354 490.454 485.742 473.656 472.208
threshold=0.19418668746948245 -0.06486570835113524 -0.54197669029235829 -1.425590395927429 -0.29408547282218928 0.28872345387935644 0.42343738675117498 -0.27725468575954432 -0.75044217705726612 0.94857439398765575 -0.045737378299236291 1.0894653201103213 0.3149570375680924 -1.6602409482002256 0.98676767945289623 0.14704977720975879 0.14990099519491198 0.5225280523300172 0.34412947297096258 0.20731524378061297 0.59804242849349987 -0.2166744843125343 0.69102340936660778 -1.2703481912612913 0.22003265470266345 -0.75242900848388661 -2.07804262638092 -0.0085076391696929914 2.2464206218719487 1.4835836291313174 0.060351809486746795 -0.33896428346633906 -0.52870726585388172 1.379611134529114 1.6539640426635744 0.39322553575038915 -0.48984521627426142 0.46899968385696417 0.10877258330583574 -0.13393864780664441 0.54262343049049389 1.3377174735069277 0.50919383764266979 -1.9023531675338743 -1.6325487494468687 0.26955021917819982 -2.4312251806259151 -0.2892411053180694 0.63944309949874889 -1.5269350409507749 1.9212240576744082 -0.7676861286163329 -0.70338910818099964 1.5601363778114321 -0.72445750236511219 0.25419466197490698 1.9094107151031496 0.41809126734733587 1.0536016225814822 1.2093003392219546 1.536876440048218 -3.1005463600158687
decision_type=2 2 2 2 2 2 2 2 2 2 2 2 2 2 2 2 2 2 2 2 2 2 2 2 2 2 2 2 2 2 2 2 2 2 2 2 2 2 2 2 2 2 2 2 2 2 2 2 2 2 2 2 2 2 2 2 2 2 2 2 2 2
left_child=1 5 15 18 6 12 11 13 17 22 39 25 33 24 28 34 35 47 46 29 49 42 30 32 50 45 61 43 -15 -17 57 -11 -8 -1 53 -10 41 -18 -25 52 60 -14 59 -19 -21 -4 -2 -7 -37 -13 -5 -16 -9 -3 -29 -46 -35 -6 -27 -12 -24 -20
right_child=3 2 4 7 9 8 23 10 16 31 21 20 36 14 51 19 37 27 26 44 -22 -23 40 38 -26 58 -28 54 -30 -31 -32 -33 -34 56 -36 48 -38 -39 -40 -41 -42 -43 -44 -45 55 -47 -48 -49 -50 -51 -52 -53 -54 -55 -56 -57 -58 -59 -60 -61 -62 -63
leaf_value=0.0090516921332574433 -0.022411870959864896 0.014461606904042142 0.0056164982159672312 0.011408103629497679 0.0026312371804953849 -0.0033675714543839295 -0.0042052367552852235 -0.0056123841776279442 -1.9751502354220862e-05 0.01826897601184092 -0.0034644582910923656 0.018569333845277581 0.0020900274366919959 -0.007814812676095172 -0.030771334076256891 0.0057220816305912428 0.00271512350989302 -0.03041473785993401 -0.063960427138667605 0.0015371811654430576 0.0045209386325967618 0.002811338558805681 0.0084983039383277111 -0.0029903971979346284 -0.0040879537281903319 0.0041753490324305288 -0.015832980526011287 0.004866916639289425 -0.017286946613251111 0.016502534621932841 0.0044231135219272516 0.0095574381941252555 -0.012970916764740204 0.019915444532362925 0.038966068966943219 -0.0047037876288844723 -0.0014440667195420756 0.01617227111151125 0.0023233131721445664 -0.0021298141065740103 0.0052542665298547188 0.0099306381437065522 -0.00085065806737055945 -0.013197784589139401 0.014912116318622957 0.0020951901595224007 -0.0080284760244970655 -0.0078049934715102914 -0.0015607437270599267 0.0098880899176174084 0.044455097017074008 -0.017770972570579826 -0.0092904306350383957 0.024893707167810475 -0.0077789820373356218 0.026543158986344975 0.04699790654653356 -0.0020140413151092163 -0.00084365801356100264 -0.0088707049401738382 0.01557899045410604 -0.028733683529981759
leaf_weight=63678 7936 52278 170176 11593 117937 351020 97265 269069 297918 47082 166970 31060 220269 181970 14988 236982 166005 7216 1005 8805 165646 188474 113013 261353 32568 54079 77582 8905 35551 24557 495177 114178 49621 9724 5463 390769 181232 13995 117981 115328 285481 40300 310381 75475 59674 480559 93897 97869 248811 50055 1468 18900 167236 15499 90612 11390 2137 111346 487038 55315 29862 17894
leaf_count=63678 7936 52278 170176 11593 117937 351020 97265 269069 297918 47082 166970 31060 220269 181970 14988 236982 166005 7216 1005 8805 165646 188474 113013 261353 32568 54079 77582 8905 35551 24557 495177 114178 49621 9724 5463 390769 181232 13995 117981 115328 285481 40300 310381 75475 59674 480559 93897 97869 248811 50055 1468 18900 167236 15499 90612 11390 2137 111346 487038 55315 29862 17894
internal_value=-2.12419e-06 0.00161159 0.00365859 -0.00544116 0.00280319 -0.0017251 0.00103727 -0.00438404 -0.0030758 0.00544363 -0.00323135 0.00250114 0.00284024 -0.00932317 -0.0112714 0.0104228 -0.00139173 -0.00605783 -0.0138091 0.00869059 0.00737799 -0.00111395 0.00451238 -0.00296473 0.00141101 0.00149143 -0.0187271 -0.010302 -0.00936294 0.00673433 0.00314205 0.0121009 -0.0071665 0.0115239 0.0184973 -0.00238115 0.0013555 0.00376145 -0.00133771 -0.00599937 0.00682994 0.00330269 -0.00250285 -0.0147003 0.0150965 0.00301607 -0.00914947 -0.00433505 -0.00348108 0.0132123 0.0151231 -0.023521 -0.0070222 0.0168473 -0.00664735 0.0167764 0.0247957 0.000375343 -0.000342051 -0.00480981 0.00997827 -0.0306075
internal_weight=7.72762e+06 5.95949e+06 3.69356e+06 1.76812e+06 3.27891e+06 2.26594e+06 1.96483e+06 1.56981e+06 1.7486e+06 1.31408e+06 1.27277e+06 1.43861e+06 517340 297038 251409 414648 1.1175e+06 631097 198314 341408 246761 721140 1.15282e+06 526220 45629 1.19185e+06 96481 182208 217521 261539 724460 161260 146886 75539 73240 937498 441801 180000 379334 551633 428356 260569 532666 82691 79869 650735 101833 448889 639580 81115 13061 33888 436305 67777 99517 71064 11861 229283 541117 222285 142875 18899
internal_count=7727617 5959492 3693557 1768125 3278909 2265935 1964833 1569811 1748595 1314076 1272773 1438613 517340 297038 251409 414648 1117498 631097 198314 341408 246761 721140 1152816 526220 45629 1191852 96481 182208 217521 261539 724460 161260 146886 75539 73240 937498 441801 180000 379334 551633 428356 260569 532666 82691 79869 650735 101833 448889 639580 81115 13061 33888 436305 67777 99517 71064 11861 229283 541117 222285 142875 18899
is_linear=0
shrinkage=0.05


Tree=9
num_leaves=63
num_cat=0
split_feature=85 124 81 117 20 20 20 2 13 2 86 8 8 81 2 31 124 14 124 117 20 14 14 86 69 13 8 8 87 13 69 31 1 31 117 20 8 2 81 69 13 2 4 8 2 8 87 21 117 13 124 2 69 8 69 87 13 13 81 13 12 81
split_gain=24627.5 12139.2 6554.79 6104.65 4432.29 4383.05 4355.9 3671.4 3497.69 2655.23 2649.57 2521.6 2494.88 2009.71 1762.13 1567.58 1559.38 1415.99 1393.56 1341.88 1340.91 1329.96 1329.56 1314.96 1197.71 1167.86 1087.11 1053.76 1037.08 1027.46 1009.03 1004.81 945.376 910.427 865.394 845.907 940.97 831.785 824.719 817.395 737.622 719.708 685.766 684.485 590.057 571.974 570.236 567.063 565.442 545.982 543.918 521.258 510.713 500.902 492.742 490.128 486.52 483.455 472.467 467.177 466.892 465.736
threshold=0.17700222134590152 -0.021686039865016934 0.62651312351226818 -0.24182832241058347 -0.69567766785621632 -0.42885453999042505 -0.60398319363594044 0.34420266747474676 1.5601363778114321 0.54450199007987987 2.0120087862014775 0.19934187829494479 0.10747217759490015 -0.34775340557098383 0.34420266747474676 1.2602251768112185 -0.16151322424411771 -0.66784802079200734 -0.10518902540206908 0.24177817255258563 -1.5708738565444944 -0.95284640789031971 -0.75812342762947071 1.8731976151466372 1.7209417819976809 1.0356584191322329 0.20338726788759234 0.15679145604372027 0.41541272401809698 0.56797054409980785 1.2582738399505617 1.3135590553283694 -2.8019684553146358 0.8883437216281892 0.99980181455612194 -1.7487354874610899 0.20338726788759234 0.31766022741794592 1.1146953105926516 1.6994383335113528 1.4055292606353762 0.7216072976589204 -0.59071698784828175 -0.023756100796163079 0.49558176100254064 0.21995100378990176 0.51218000054359447 -0.88727897405624379 -1.3223591446876524 0.94930374622344982 0.045453980565071113 0.37903317809104925 1.5155760049819949 0.14990099519491198 1.4680086374282839 0.042798876762390144 0.44272619485855108 1.4785247445106509 -0.27637684345245356 0.3951097577810288 0.59249228239059459 0.25930547714233404
decision_type=2 2 2 2 2 2 2 2 2 2 2 2 2 2 2 2 2 2 2 2 2 2 2 2 2 2 2 2 2 2 2 2 2 2 2 2 2 2 2 2 2 2 2 2 2 2 2 2 2 2 2 2 2 2 2 2 2 2 2 2 2 2
left_child=1 5 6 8 14 7 9 21 15 22 19 17 16 25 29 26 58 33 37 -4 34 30 40 -11 51 -7 44 -22 50 61 -1 49 -12 59 -9 47 -37 -15 -21 -36 -2 -25 -24 -19 54 -20 -29 -16 -33 -18 -14 -10 -27 -39 -3 -13 -23 -32 -8 -6 -42 -5
right_child=2 3 10 4 11 13 12 20 24 23 32 55 28 18 35 -17 31 43 45 38 27 56 42 41 -26 52 -28 46 -30 -31 57 48 -34 -35 39 36 -38 53 -40 -41 60 -43 -44 -45 -46 -47 -48 -49 -50 -51 -52 -53 -54 -55 -56 -57 -58 -59 -60 -61 -62 -63
leaf_value=0.0014253062129089915 -0.003155449371589702 0.0057412058324464244 -0.004876943982168481 0.00065049509439944308 0.0033111859884962813 0.0040463789542421634 6.2575161425787472e-06 -0.0058263428245434699 0.019654254276846642 -0.0073272710016821828 -0.031703046333181412 0.0095899115499487562 0.00072949886359357889 0.0018341257630368037 -0.0038423298480117479 0.01486876836237244 -0.0022207290295984871 -0.00092204704293248846 0.0025668002834342732 -0.010203652828191892 -0.005104825530937474 -0.0028899249689218563 -0.015205512807156821 -0.012648467772845846 0.036533252926866176 0.010265663630786563 0.013470851273231882 -0.00092744408055234369 0.014771871088142458 0.004836271604447856 0.0070305268784860353 0.020004789654940479 -0.016854821904754055 0.009843195335985426 -0.012011419334848901 -0.002794524398557533 0.0068733527798778629 -0.003220494408889882 -0.020051084856394352 -0.031228372446852132 0.0064840327821943022 -0.024647332840069022 -0.0058896620023168953 0.0034043855372230371 0.0012358491729444255 0.0187536325004454 0.012043771454700902 -0.014483795124295394 0.0041377997437263853 0.0013717805528438837 0.0065500159729420179 0.010953302093054264 0.023999490749988639 0.002270204647925426 0.013022847014955395 0.017370528074790722 0.00026849323314146492 0.020505759632673301 -0.0060276610945794416 0.0063325888373094346 -0.0012961823326745813 -0.0076848208386409295
leaf_weight=303458 359233 302198 123818 285356 231639 236658 37612 70762 46163 192622 14091 40456 105318 167206 26876 60042 391523 123837 433985 118433 419606 304168 21353 74349 8220 39904 46770 129908 20813 191897 31229 6473 44829 118232 51166 220612 28409 299130 25916 6205 35119 15024 264051 349227 69749 5527 9064 23438 42364 144900 64856 27454 8153 48234 25169 40516 203498 8460 235961 285813 42761 17804
leaf_count=303458 359233 302198 123818 285356 231639 236658 37612 70762 46163 192622 14091 40456 105318 167206 26876 60042 391523 123837 433985 118433 419606 304168 21353 74349 8220 39904 46770 129908 20813 191897 31229 6473 44829 118232 51166 220612 28409 299130 25916 6205 35119 15024 264051 349227 69749 5527 9064 23438 42364 144900 64856 27454 8153 48234 25169 40516 203498 8460 235961 285813 42761 17804
internal_value=-2.01779e-06 0.00188186 -0.00423125 0.00435826 0.00303415 -0.000410402 -0.00318453 -0.00219365 0.0088433 -0.00553825 -0.0108053 0.00496521 -0.000932398 0.00180286 0.000142094 0.00728628 -0.00208184 0.00434314 0.000702715 -0.00869592 -0.00491325 1.3909e-06 -0.00393225 -0.00965304 0.0184309 0.00548945 0.00626062 -0.00385502 0.00423639 0.00197324 0.00240587 -0.000625181 -0.020406 0.00588457 -0.0095264 -0.00288635 -0.00169156 -0.00106333 -0.0119717 -0.01409 -0.0021991 -0.0146656 -0.00658667 0.00227182 0.00541143 0.00277037 -8.13944e-05 -0.00879961 0.006241 -0.0012503 0.00294782 0.0164095 0.0125958 -0.00245806 0.00630106 0.0134832 -0.00162386 0.00990304 -0.00519807 0.00498006 0.00221215 0.000160959
internal_weight=7.72762e+06 5.3462e+06 2.38142e+06 2.56988e+06 1.98411e+06 2.77632e+06 2.05433e+06 1.53752e+06 585765 1.00451e+06 327087 1.18972e+06 1.04982e+06 1.2388e+06 794392 503928 858833 1.10875e+06 954082 268167 686711 850813 722517 281995 81837 284715 443886 558578 190987 495057 343147 585260 58920 635684 128133 299335 249021 514570 144349 57371 437113 89373 285404 473064 397116 439512 138972 50314 48837 536423 170174 73617 48057 347364 327367 80972 507666 39689 273573 517452 77880 303160
internal_count=7727617 5346198 2381419 2569877 1984112 2776321 2054332 1537524 585765 1004512 327087 1189720 1049820 1238797 794392 503928 858833 1108748 954082 268167 686711 850813 722517 281995 81837 284715 443886 558578 190987 495057 343147 585260 58920 635684 128133 299335 249021 514570 144349 57371 437113 89373 285404 473064 397116 439512 138972 50314 48837 536423 170174 73617 48057 347364 327367 80972 507666 39689 273573 517452 77880 303160
is_linear=0
shrinkage=0.05


Tree=10
num_leaves=63
num_cat=0
split_feature=0 20 0 20 8 31 124 124 14 8 0 14 69 2 87 14 2 116 2 81 31 124 69 117 8 117 124 36 8 8 124 117 117 117 0 87 20 117 26 2 77 14 77 81 117 14 14 8 45 81 87 87 81 117 20 20 38 116 2 81 20 76
split_gain=30252.5 9908.56 7364.66 6865.7 4797.8 3531.3 3286.8 3286.66 2765.86 2671.04 2266.37 2137.04 2424.89 1933.56 1891.42 1753.95 1683.75 1423.85 1337.56 1304.53 1299.44 1297.29 1286.46 1260.32 1218.79 1152 1136.8 1077.79 1059.19 861.13 818.312 816.545 775.784 773.073 708.522 708.404 674.19 670.448 668.5 643.986 641.124 617.632 609.51 596.363 571.132 562.663 559.788 550.938 544.131 535.931 533.04 532.342 519.853 514.405 502.534 494.382 493.353 491.111 488.028 477.342 466.696 460.837
threshold=1.2757689356803896 -0.64125552773475636 2.2572900056838994 -0.28670382499694819 0.14103862643241885 0.80784538388252269 -0.15624850243329999 0.048769924789667136 -0.57637357711791981 0.20338726788759234 3.0914210081100468 -0.75812342762947071 1.7453780770301821 0.34420266747474676 0.49691969156265264 -0.75812342762947071 0.2301585599780083 -0.79392659664154042 0.34420266747474676 -0.30138349533081049 -1.6562127470970152 -0.12618077546358106 1.8338372111320498 1.4940027594566347 -0.27725468575954432 0.081274613738060011 0.045453980565071113 1.4435110092163088 -0.17418175935745236 0.23996556550264361 0.045453980565071113 0.62381261587142955 -0.97013989090919484 0.56252798438072216 0.87628367543220531 -0.011577367782592772 -1.0902764797210691 0.26289370656013494 0.31175997853279119 0.30455778539180761 2.0047613382339482 -0.72144386172294606 1.6254478693008425 0.98676767945289623 1.6073736548423769 -1.3287609219551084 -1.3379576802253721 -0.1416671350598335 0.43573492765426641 0.55824086070060741 -0.039245784282684319 0.16190099716186526 -0.370049238204956 -1.5623059868812559 -1.112283408641815 -1.5708738565444944 2.6167559623718266 -0.19427388906478879 0.90987744927406322 0.95199358463287365 -2.0807694196701045 -0.67317828536033619
decision_type=2 2 2 2 2 2 2 2 2 2 2 2 2 2 2 2 2 2 2 2 2 2 2 2 2 2 2 2 2 2 2 2 2 2 2 2 2 2 2 2 2 2 2 2 2 2 2 2 2 2 2 2 2 2 2 2 2 2 2 2 2 2
left_child=3 2 8 7 6 9 19 15 13 26 23 12 18 22 30 16 48 -9 53 42 44 60 31 45 43 39 41 -7 49 -16 58 -2 40 57 -17 -25 -36 -23 55 -19 -14 56 -3 -13 -10 -4 -29 -22 -1 61 -47 -11 -34 -8 -35 -27 -5 -18 -6 -37 -15 -21
right_child=1 4 10 5 14 27 11 17 20 51 -12 24 32 21 29 34 33 25 -20 28 47 37 -24 35 -26 38 -28 46 -30 -31 -32 -33 52 54 36 59 -38 -39 -40 -41 -42 -43 -44 -45 -46 50 -48 -49 -50 -51 -52 -53 -54 -55 -56 -57 -58 -59 -60 -61 -62 -63
leaf_value=0.0085751948268549174 0.0043342446517544821 1.0611774094230309e-05 -0.005293383199495163 0.0039615905414129094 0.0018819876443091678 0.010176864528301287 0.016276510377837981 0.010211478039493092 -0.010636926822628534 0.010453242107817624 -0.034355345942844555 -0.0065442687428704308 0.021892256766073037 -0.012697066263616066 0.012299528551895159 0.0072248006460638768 0.0060568971777352426 0.010267721707990741 1.5194367831449587e-05 0.030585745231574143 -0.0094818538675207516 -0.00061684251405424322 0.021049384504793364 -0.027856525202804957 -0.0014293353679208434 -0.006554041036067694 0.0064850127117152077 0.028086761346182265 -0.0041728302840949123 0.03177218084122934 0.0073799374277364917 -0.0022786211430519073 0.025479294354505213 -0.002674316426897745 -0.0043476053439223689 -0.012265204315398352 -0.00089656800479192319 -0.004102100810814328 0.0033965536708293526 0.004552966786159878 0.058680540981212427 0.0015580850695855412 0.019321666637189584 -0.021041182330858447 -0.020630392874752129 -0.018491498771085402 0.015827804642533753 -0.0055930774005325803 0.022888862108856118 -0.015426967719793414 -0.010296191877293366 0.018521471507979403 0.0064406866254495604 0.0048854668788095718 0.00098842236513615837 0.00077947589142142329 0.010063080718611693 0.0017716985005713883 -0.017845728093306177 -0.024455531817842071 -0.0061035435226968766 -0.0079649295173533901
leaf_weight=35881 78871 85146 36313 334990 141204 127782 10951 84378 35812 52897 13610 74605 7881 29466 28081 21102 91853 72596 519595 780 129899 223124 7865 17513 584976 26758 420102 12259 376001 7117 97101 114376 4478 143814 216362 27994 409151 361641 369522 153622 1394 315875 4292 7840 23802 27464 38766 304817 8148 27615 71513 33330 17996 104408 268456 162827 36768 245765 3206 11263 301023 122636
leaf_count=35881 78871 85146 36313 334990 141204 127782 10951 84378 35812 52897 13610 74605 7881 29466 28081 21102 91853 72596 519595 780 129899 223124 7865 17513 584976 26758 420102 12259 376001 7117 97101 114376 4478 143814 216362 27994 409151 361641 369522 153622 1394 315875 4292 7840 23802 27464 38766 304817 8148 27615 71513 33330 17996 104408 268456 162827 36768 245765 3206 11263 301023 122636
internal_value=-1.82545e-06 -0.00298768 -0.00572846 0.00327642 -0.000752559 0.00607695 -0.0016266 0.00161231 -0.00459077 0.00509557 -0.0146382 -0.000231412 0.0017708 -0.00321202 0.00540875 0.000146944 0.00172148 0.00403945 0.00109651 -0.00464596 -0.00770445 -0.00418745 0.00122709 -0.013241 -0.00223148 0.0033763 0.00443575 0.01263 -0.00559347 0.0162371 0.00383059 0.0004203 0.0152559 0.00116353 -0.00178627 -0.0194938 -0.00209027 -0.00277227 0.00215817 0.00638692 0.0274225 0.00318377 0.000937398 -0.00792292 -0.0146271 -0.0106171 0.0187732 -0.00675511 0.0112242 -0.00913021 -0.0125703 0.013572 0.0102345 0.00596687 -0.000289256 -0.000255552 0.00456506 0.00293755 0.00144397 -0.0157628 -0.00669143 -0.00772122
internal_weight=7.72667e+06 4.04367e+06 1.81637e+06 3.683e+06 2.2273e+06 1.37277e+06 1.95059e+06 2.31024e+06 1.6107e+06 1.19396e+06 205670 1.33412e+06 666703 1.11637e+06 276709 1.44053e+06 793917 869703 634954 616470 494330 915254 201112 192060 667421 785325 1.10774e+06 178807 527032 35198 241511 193247 31749 749888 646615 56770 625513 584765 559107 226218 9275 687633 89438 82445 59614 135290 51025 434716 44029 151031 98977 86227 22474 115359 412270 189585 371758 337618 144410 39257 330489 123416
internal_count=7726673 4043669 1816366 3683004 2227303 1372769 1950594 2310235 1610696 1193962 205670 1334124 666703 1116366 276709 1440532 793917 869703 634954 616470 494330 915254 201112 192060 667421 785325 1107735 178807 527032 35198 241511 193247 31749 749888 646615 56770 625513 584765 559107 226218 9275 687633 89438 82445 59614 135290 51025 434716 44029 151031 98977 86227 22474 115359 412270 189585 371758 337618 144410 39257 330489 123416
is_linear=0
shrinkage=0.05


Tree=11
num_leaves=63
num_cat=0
split_feature=0 20 0 13 31 0 13 20 8 116 2 20 77 31 12 123 2 87 8 123 31 38 12 87 2 124 69 81 20 20 0 14 8 81 81 14 14 13 20 26 87 14 9 12 36 77 8 116 77 14 8 0 76 8 12 20 0 12 124 14 14 37
split_gain=27363.9 9390.47 8049.49 6577.07 4153 3389.2 3064.75 3036.79 3018.56 2592.77 2315.8 1660.82 1655.87 1650.29 1619.36 1616.8 1507.41 1449.17 1435.88 1290.65 1195.85 1179.4 1179.06 1151.92 1123.95 978.444 967.328 964.899 961.174 897.102 881.631 854.982 804.782 777.498 752.351 706.478 690.904 680.57 676.856 659.285 657.835 611.848 611.011 583.025 580.661 579.627 571.865 562.954 555.108 553.654 549.193 548.352 524.672 519.421 516.931 509.787 504.003 472.108 466.756 466.068 462.116 458.732
threshold=1.2313554883003237 -0.2166744843125343 1.9216789007186892 0.54840615391731273 0.99412477016448986 2.8604007959365849 0.69842258095741283 -0.67261889576911915 0.17785761505365374 -0.72445750236511219 0.34547489881515508 -1.1807647943496702 1.8917173743247988 0.49951894581317907 0.68103325366973888 -2.3758656978607173 0.34547489881515508 0.32198333740234381 -0.1416671350598335 -1.8366765975952146 0.49951894581317907 2.770303606987 0.059783907607197768 -0.28106218576431269 0.31501893699169164 -0.06486570835113524 1.680986285209656 0.29065215587615972 -1.3250542283058164 -0.58119001984596241 0.9325385093688966 -0.75812342762947071 0.20338726788759234 0.09007966518402101 1.021489202976227 -0.63063231110572804 -1.2919353842735288 0.47257052361965185 -0.7830907106399535 -1.3300326466560362 -0.12075603008270262 -1.0005264878273008 -0.093431297689676271 1.6898482441902163 1.4511699080467226 1.5175327658653261 -0.5521918237209319 -1.1556397080421446 1.6860948801040652 -0.82574427127838124 0.27812060713768011 3.1247602701187138 -0.45365162193775171 0.23283684998750689 -0.37707151472568506 -1.1696159839630125 1.5685943961143496 1.4858118295669558 0.10902566462755205 -1.4240748882293699 -1.4791350960731504 0.42137584090232855
decision_type=2 2 2 2 2 2 2 2 2 2 2 2 2 2 2 2 2 2 2 2 2 2 2 2 2 2 2 2 2 2 2 2 2 2 2 2 2 2 2 2 2 2 2 2 2 2 2 2 2 2 2 2 2 2 2 2 2 2 2 2 2 2
left_child=3 2 6 7 9 11 15 19 10 53 12 23 22 32 24 43 26 42 34 57 37 60 52 -4 54 -18 36 41 51 -16 -21 61 49 -24 45 -32 -8 -20 -26 -25 -29 48 -10 -2 -15 56 -30 -27 -13 -9 -19 -7 -3 -5 -11 -33 -12 -1 -31 -23 -6 -17
right_child=1 8 5 4 21 28 16 13 17 14 18 27 -14 44 29 31 25 50 20 30 -22 59 33 39 38 47 -28 40 46 58 35 55 -34 -35 -36 -37 -38 -39 -40 -41 -42 -43 -44 -45 -46 -47 -48 -49 -50 -51 -52 -53 -54 -55 -56 -57 -58 -59 -60 -61 -62 -63
leaf_value=-0.003455689915444616 -0.0078864082091394481 0.030561078786707038 -0.019560295297662539 0.010594281669004599 0.016056513953735474 -0.028127338516918517 0.0070839682398736135 0.003228728346407481 0.0064840623586023827 0.018066967854163288 0.00077403503085916837 -0.0014128223427875392 0.03561880729021482 0.0056945258766428154 0.00085512869837411779 -0.0029693826051436956 -0.0032897932814580943 0.01570734933875274 -0.0025076718656037496 0.0057986450583673594 0.0052626352160898785 0.034109522321598112 0.0047156543356742511 -0.014540540995043481 0.0017694295832346352 0.017252541565710974 0.01782901752853476 -0.01654373109365035 -0.028937874782662285 0.003280537067937757 0.00074317469310005856 -0.0074693075433730468 0.0092859078165033436 -0.0022683117450420722 -0.015216933181106996 -0.0026440829051579983 0.00020664039217365275 0.00077218826420251418 0.0066505006074770896 -0.0080365016325993337 -0.0076747009814729737 -0.005761247890932508 -0.013053094475068803 -0.016302527123807049 0.011988944309938243 0.0048427017650289721 -0.012718441758379573 0.00018000459320660877 0.017316376936173421 0.00077053943319332571 0.035021197814301248 -0.05524821388193827 0.010464014626734467 0.020546209660341621 0.009324838304591734 -0.0041355663005946302 -0.0053705868920661537 -0.010022119274206478 0.0070616708678644989 0.019019483521437616 0.0097088822037601202 0.00081719547520604059
leaf_weight=101408 113626 3633 36436 109036 41908 14070 58009 430638 77349 21053 40888 74172 4243 162359 337068 480130 365584 22199 276950 60746 99167 7548 125164 54213 102317 4898 11418 23394 7145 287645 421293 159554 38653 58464 14587 242568 98581 368746 232249 138537 196816 168609 4220 25131 47321 19067 22713 340144 4179 489361 4413 2149 30638 14905 85964 407739 181516 37496 113957 15899 90820 95970
leaf_count=101408 113626 3633 36436 109036 41908 14070 58009 430638 77349 21053 40888 74172 4243 162359 337068 480130 365584 22199 276950 60746 99167 7548 125164 54213 102317 4898 11418 23394 7145 287645 421293 159554 38653 58464 14587 242568 98581 368746 232249 138537 196816 168609 4220 25131 47321 19067 22713 340144 4179 489361 4413 2149 30638 14905 85964 407739 181516 37496 113957 15899 90820 95970
internal_value=-1.73376e-06 -0.00270391 -0.00429834 0.00327478 0.00583425 -0.00878984 -0.00275508 0.00143518 0.00077325 0.00491155 6.51494e-05 -0.00792083 0.00468344 0.003097 0.00418911 -0.0043139 -0.000480359 0.00877877 -0.000959818 -0.000813257 0.000150527 0.0135395 0.00408102 -0.0114071 0.00658449 -0.00148736 0.00377892 -0.00621051 -0.0219229 0.00275712 3.3079e-05 -0.00369537 0.00221814 0.00249205 -0.00418979 -0.000494487 0.00275439 -0.000634592 0.00515779 -0.00986586 -0.00861693 -0.00406472 0.00547322 -0.00941074 0.00711509 -0.00352362 -0.0166 0.000422375 -0.00041378 0.00192119 0.0189104 -0.0317215 0.0125947 0.0117911 0.0110447 -0.00507321 -0.0042409 -0.00522829 0.00435347 0.0238776 0.0117132 -0.00233858
internal_weight=7.72667e+06 4.23446e+06 2.90322e+06 3.49221e+06 1.46037e+06 742433 2.16078e+06 2.03184e+06 1.33124e+06 1.30419e+06 1.22306e+06 696356 222142 1.16833e+06 1.18025e+06 1.28215e+06 878634 108181 1.00092e+06 863511 744863 156175 217899 229186 441583 710626 168008 467170 46077 738670 724607 1.14339e+06 958652 183628 256058 663861 156590 645696 334566 192750 220210 246960 81569 138757 209680 241471 29858 345042 78351 919999 26612 16219 34271 123941 107017 567293 222404 138904 401602 23447 132728 576100
internal_count=7726673 4234461 2903217 3492212 1460369 742433 2160784 2031843 1331244 1304194 1223063 696356 222142 1168332 1180253 1282150 878634 108181 1000921 863511 744863 156175 217899 229186 441583 710626 168008 467170 46077 738670 724607 1143393 958652 183628 256058 663861 156590 645696 334566 192750 220210 246960 81569 138757 209680 241471 29858 345042 78351 919999 26612 16219 34271 123941 107017 567293 222404 138904 401602 23447 132728 576100
is_linear=0
shrinkage=0.05


Tree=12
num_leaves=63
num_cat=0
split_feature=0 117 0 31 117 69 81 0 7 69 123 123 8 6 0 8 14 117 8 31 37 2 0 2 14 77 31 31 21 117 8 36 0 9 81 2 8 31 14 0 21 77 87 6 12 7 122 8 14 37 8 123 117 6 44 87 6 2 14 87 14 0
split_gain=24891.3 7705.31 6301.3 4826.94 4535.71 3001.21 2771.15 2736.74 2656.04 2583.48 2289.01 2136.24 1744.69 1541.28 1500.16 1416.47 1391.99 1360.77 1271.77 1162.99 1116.7 1060.12 1045.99 975.018 955.694 1034.72 893.435 887.404 873.061 862.959 812.378 795.558 785.866 772.414 746.704 759.69 737.09 728.747 707.432 653.447 645.138 617.856 608.77 606.815 600.298 594.937 593.488 591.585 575.586 594.961 571.565 562.46 550.277 503.364 490.385 485.648 468.154 459.532 453.948 444.187 439.873 438.513
threshold=1.4623585939407351 0.1786204278469086 2.2692975997924809 1.3689865469932558 0.38387897610664373 1.5853239297866824 0.72844755649566661 1.2313554883003237 -0.53269806504249562 1.2056080102920534 -1.8366765975952146 -3.0500700473785396 -0.1416671350598335 2.5248353481292729 2.9173222780227666 0.10747217759490015 -0.83146846294403065 1.359088718891144 0.20338726788759234 1.4137718677520754 0.50274133682250988 0.54381704330444347 1.2374926805496218 0.31501893699169164 -1.1602531075477598 1.6860948801040652 -1.9041033387184141 0.49951894581317907 0.25549386441707617 -0.41032338142395014 0.10747217759490015 1.4472784996032717 0.883130043745041 -2.1012154817581172 0.30705630779266363 0.5225280523300172 -0.18544679880142209 0.77405479550361644 -1.1602531075477598 3.1247602701187138 1.9069832563400271 1.3894158005714419 -1.0000000180025095e-35 2.5248353481292729 -0.29510258138179774 -0.69777387380599964 1.8423944711685183 0.21859283745288852 -1.021822929382324 0.36775103211402899 0.19829478859901431 -4.0374832153320304 2.0161252021789555 1.743366062641144 2.2995256185531621 -0.66564410924911488 2.9236050844192509 0.53329426050186168 -1.0572045445442197 -0.023286670446395871 -0.43925739824771876 3.1078096628189091
decision_type=2 2 2 2 2 2 2 2 2 2 2 2 2 2 2 2 2 2 2 2 2 2 2 2 2 2 2 2 2 2 2 2 2 2 2 2 2 2 2 2 2 2 2 2 2 2 2 2 2 2 2 2 2 2 2 2 2 2 2 2 2 2
left_child=1 3 4 9 5 15 17 8 27 18 51 52 34 23 29 21 37 24 22 43 -5 48 38 44 25 -4 -19 40 30 -8 -14 -9 -18 -27 35 41 61 -12 -1 59 47 -13 -31 57 -11 50 -34 -3 49 -2 -17 -10 -6 -25 -21 -38 60 58 -7 -16 -33 -26
right_child=2 7 6 20 11 19 14 31 10 13 16 12 28 -15 39 45 32 26 -20 54 -22 -23 -24 53 36 33 -28 -29 -30 42 -32 56 46 -35 -36 -37 55 -39 -40 -41 -42 -43 -44 -45 -46 -47 -48 -49 -50 -51 -52 -53 -54 -55 -56 -57 -58 -59 -60 -61 -62 -63
leaf_value=0.0057189404320057494 -0.00064803973660364884 0.0036016124327687853 -0.0024211129082979265 0.013105390006306443 -0.0088211453531226499 0.016351143036160684 -0.0059910124041242692 -0.0027001583392976839 -0.0093818660944731142 0.019261351081523548 0.0024659754495345737 -0.0035660257891499052 -0.0030016552599443137 0.025713341359102516 -0.040287597501436373 0.0032708177113716119 0.0061515168924024515 -0.024264693295161146 0.010281256712183143 0.017105178176559648 0.026756365478079858 -0.0046042813734840796 -4.7132823022231654e-05 0.0047140608298540387 -0.0094898934532863712 0.032951434254098674 -0.0099987895868454135 0.0097088752176315209 -0.0086701758801761564 -0.024311792204765134 0.0010985377605591032 0.0020445644570838552 -0.0011176105906590551 0.0040892286713846279 -0.0092566709943821806 -0.0080958932031577925 -0.015657381232203862 0.006487162673190639 0.0025890321175436304 -0.053981121804141607 -0.020004789297520888 0.0067279259730568869 -0.013462827933503778 0.017104229952687192 0.0096959005286346017 0.0010848749414183207 0.0018441730556135829 0.010831493164635188 -0.0020791899005384489 0.0046563322139278546 0.014257596290090394 -0.0024060718198740394 -0.016439547148468014 0.010473949183410495 0.046456621418271241 -0.0031913796094166051 0.020209201978085831 0.00097623549101973821 0.0040269294696210611 -0.020563522056713242 -0.0022204898405882795 -0.027216218079571187
leaf_weight=278178 163494 270813 61790 89090 94008 12043 31287 557714 32724 21240 690973 96253 666123 12086 3660 32277 52389 13765 60167 14859 18011 267523 245558 192500 82612 3733 54163 93361 56792 16649 147567 158777 531328 6117 166355 93422 8437 134624 514362 2186 2742 17178 57925 9956 72035 157316 248126 31596 364915 78124 18695 247096 31697 47242 1574 105639 3024 48847 19689 12983 97621 3643
leaf_count=278178 163494 270813 61790 89090 94008 12043 31287 557714 32724 21240 690973 96253 666123 12086 3660 32277 52389 13765 60167 14859 18011 267523 245558 192500 82612 3733 54163 93361 56792 16649 147567 158777 531328 6117 166355 93422 8437 134624 514362 2186 2742 17178 57925 9956 72035 157316 248126 31596 364915 78124 18695 247096 31697 47242 1574 105639 3024 48847 19689 12983 97621 3643
internal_value=-1.64654e-06 0.00227362 -0.00354131 0.00515955 -0.00256863 -0.000309719 -0.0088983 0.000854447 0.00172574 0.00439959 0.000961022 -0.00453049 -0.00390264 0.00817327 -0.015274 -0.00109934 0.00166721 -0.0065594 0.0032138 0.00767988 0.0154011 -0.00198233 0.00280418 0.00753668 -0.0049783 -2.18535e-05 -0.0128898 0.00544319 -0.0026764 -0.0129609 -0.00225806 -0.00163612 0.00022365 0.0150283 -0.00676272 -0.00475702 -0.00675074 0.00312169 0.00368762 -0.0282782 0.00413809 -0.00200706 -0.015885 0.00545863 0.0118742 0.002606 -0.00017477 0.00435702 -0.000825852 0.00106704 0.00730056 -0.00322189 -0.0107422 0.00584909 0.0199171 -0.00411342 0.000651363 0.00401967 0.00870444 -0.0249016 0.000420668 -0.0102387
internal_weight=7.72667e+06 4.70338e+06 3.0233e+06 1.55047e+06 2.55871e+06 1.18931e+06 464589 3.15291e+06 2.33577e+06 1.44337e+06 1.93726e+06 1.3694e+06 1.24369e+06 345103 124690 1.08234e+06 1.65744e+06 339899 1.09826e+06 106968 107101 874056 1.0381e+06 333017 271971 71640 67928 398512 870482 105861 813690 817136 831843 9850 373208 206853 200331 825597 792540 18829 305151 113431 74574 90535 93275 208288 779454 302409 606533 241618 50972 279820 125705 239742 16433 114076 259422 80579 31732 16643 256398 86255
internal_count=7726673 4703377 3023296 1550469 2558707 1189312 464589 3152908 2335772 1443368 1937260 1369395 1243690 345103 124690 1082344 1657440 339899 1098265 106968 107101 874056 1038098 333017 271971 71640 67928 398512 870482 105861 813690 817136 831843 9850 373208 206853 200331 825597 792540 18829 305151 113431 74574 90535 93275 208288 779454 302409 606533 241618 50972 279820 125705 239742 16433 114076 259422 80579 31732 16643 256398 86255
is_linear=0
shrinkage=0.05


Tree=13
num_leaves=63
num_cat=0
split_feature=0 20 13 20 0 8 117 37 124 2 117 13 87 77 124 87 81 116 124 30 124 30 117 8 27 13 0 13 69 77 124 2 36 0 2 81 124 117 87 36 87 14 123 116 0 81 69 81 0 13 123 0 2 20 14 0 20 116 8 20 77 14
split_gain=22464.4 7570.12 7551.03 5134.63 4164.49 3956.25 3752.89 2654.33 2631.09 2386.68 1988.04 1942.59 1701.46 1683.79 1660.7 1503.49 1409.9 1297.4 1161.01 1139.67 1001.18 971.241 949.512 890.561 875.798 944.281 829.793 820.836 815.386 764.767 751.192 738.924 736.769 706.075 698.788 650.207 619.927 608.775 571.79 563.367 562.225 552.98 534.725 528.643 510.677 507.348 503.68 500.933 474.049 464.864 523.655 462.634 444.373 541.892 443.737 443.029 417.5 416.484 406.867 403.044 400.395 399.468
threshold=1.4623585939407351 -0.90984892845153797 0.94930374622344982 -0.58119001984596241 2.6408436298370366 0.037663171067833907 0.35435856878757482 0.3965402245521546 0.048769924789667136 0.54450199007987987 0.73881110548973095 0.90963524580001842 0.45391339063644415 1.6254478693008425 -0.047674871981143944 -0.11599844694137572 0.59717756509780895 -0.5144861340522765 0.045453980565071113 0.75346601009368908 0.045453980565071113 -1.2392945289611814 0.64409554004669201 0.20731524378061297 -0.74881520867347706 1.3715634942054751 3.1078096628189091 1.7419634461402895 1.2210350632667544 1.5760260820388796 -0.1562894061207771 0.34420266747474676 1.7783622145652773 1.1687244772911074 0.57235103845596325 0.64433157444000255 -0.17363484203815457 0.33406150341033941 -0.039245784282684319 2.1142913103103642 -0.01935935020446777 -2.0830142498016353 -1.0244617462158201 -0.79392659664154042 0.95522701740264904 -0.34069460630416865 1.5723552703857424 0.36294531822204595 1.0304561257362368 0.48414030671119695 -3.4698044061660762 0.95522701740264904 0.27052307128906256 -1.0468205213546751 -0.48984521627426142 0.87628367543220531 -2.2456598281860347 -1.1556397080421446 -1.1142106056213377 -0.73462036252021778 1.0822122097015383 -0.31764310598373408
decision_type=2 2 2 2 2 2 2 2 2 2 2 2 2 2 2 2 2 2 2 2 2 2 2 2 2 2 2 2 2 2 2 2 2 2 2 2 2 2 2 2 2 2 2 2 2 2 2 2 2 2 2 2 2 2 2 2 2 2 2 2 2 2
left_child=2 4 3 14 10 9 7 27 28 11 24 16 18 37 31 34 29 45 49 57 52 56 44 -14 -2 -26 40 48 33 36 -11 -1 -21 -5 -12 -23 -3 47 -18 -15 -6 -41 -24 -22 -16 -10 -27 60 -4 50 -7 -19 -8 -54 -53 -44 -17 -9 -32 -45 -13 -30
right_child=1 5 6 8 26 12 20 19 17 30 15 13 23 39 22 21 38 51 -20 32 43 35 42 -25 25 46 -28 -29 61 -31 58 -33 -34 -35 -36 -37 -38 -39 -40 41 -42 -43 55 59 -46 -47 -48 -49 -50 -51 -52 54 53 -55 -56 -57 -58 -59 -60 -61 -62 -63
leaf_value=-0.001558107238787567 -0.0071497044355869248 -0.0049305656778289644 0.0084182391514991319 0.0015229777946788689 -0.027309378235422583 -0.010502939560394858 0.0051949417600600694 0.024330308145195958 0.01501713644197652 -0.008131160606158214 -0.01163252549897113 0.004133921076801295 0.0065234265499253723 0.01467182310059835 0.0066409625091140836 -0.02595059526898923 -0.017597940445921455 0.007950951950865889 0.0044693145001505575 0.018404647057537023 0.012088950905869882 -0.0049398197595961722 -0.0057314878821603885 0.020821580666726777 -0.0037134917266515759 0.0015378092077516698 -0.039285149536116407 0.011520870761864201 0.0055327856158586671 0.0073879809811350314 -0.024554657303920206 -0.0049874514553763308 0.034115645601011504 -0.0016191783162855453 -0.021133065191667577 -0.010946408821647902 -0.001609089138091253 -0.0010251111848521952 -0.0071394147791388508 0.090871287894123243 -0.015138392352423261 0.030367460100739214 0.0083185026780778545 0.0024668592395422555 0.0013492119043388205 0.0077879728553522367 0.014968674850976485 0.00059108368663622255 0.0041351372961467405 0.00094254818591169649 -0.0016749950834932467 0.0047002134142219371 -0.0031565201296036276 0.0018576529834395724 0.0015524699025831487 -0.00084351152115758824 -0.012200071926406686 0.010659996942011829 -0.0039883973316547838 0.0064925171043110508 0.012865131321220163 0.00083601697285308777
leaf_weight=397443 149756 200566 99845 685161 13559 19448 65081 6034 36675 209871 76677 41767 47702 8875 50872 6748 17777 76496 159334 36475 27139 232018 56381 14113 257881 42130 5546 75309 150440 19713 2426 259737 9383 241910 25893 55914 468959 160388 49358 462 31623 2071 13558 109833 439316 71772 8367 65979 183047 180085 123312 391553 71469 218978 156803 491784 30365 72813 275460 143307 19153 64763
leaf_count=397443 149756 200566 99845 685161 13559 19448 65081 6034 36675 209871 76677 41767 47702 8875 50872 6748 17777 76496 159334 36475 27139 232018 56381 14113 257881 42130 5546 75309 150440 19713 2426 259737 9383 241910 25893 55914 468959 160388 49358 462 31623 2071 13558 109833 439316 71772 8367 65979 183047 180085 123312 391553 71469 218978 156803 491784 30365 72813 275460 143307 19153 64763
internal_value=-1.56408e-06 -0.00336425 0.00215994 0.00104075 -0.00709912 -0.00168819 0.00574613 0.0090691 0.00284716 -0.00298093 -0.00630117 -0.0016438 0.00197812 0.00177027 -0.000941615 -0.00875304 -0.00299204 0.00518447 0.000976896 0.0153517 0.00322228 -0.00708755 0.00029031 0.00978795 -0.00401261 -0.00248914 -0.0210318 0.00688184 0.00134669 -0.0023183 -0.00587326 -0.00291349 0.0216194 0.000703058 -0.0140309 -0.00610627 -0.00260409 0.00102217 -0.00990887 0.020609 -0.018791 0.041408 -0.00111299 0.00545692 0.0018984 0.0102328 0.00376333 0.00360978 0.00564685 -0.000746706 -0.00287766 0.00430829 0.0014606 0.00062382 0.00380012 -0.000597689 -0.0147004 0.0117063 -0.00416797 0.00474588 0.00687908 0.00411937
internal_weight=7.72667e+06 3.0233e+06 4.70338e+06 3.58466e+06 936477 2.08682e+06 1.11871e+06 482906 1.87557e+06 1.54282e+06 885749 1.05507e+06 543994 298695 1.70909e+06 427615 756373 733299 482179 124705 635807 325045 1.05191e+06 61815 458134 308378 50728 358201 1.14227e+06 689238 487757 657180 45858 927071 102570 287932 669525 287287 67135 11408 45182 2533 561723 280279 490188 108447 50497 126899 282892 322845 142760 624852 355528 290447 548356 505342 37113 78847 277886 253140 60920 215203
internal_count=7726673 3023296 4703377 3584664 936477 2086819 1118713 482906 1875573 1542825 885749 1055068 543994 298695 1709091 427615 756373 733299 482179 124705 635807 325045 1051911 61815 458134 308378 50728 358201 1142274 689238 487757 657180 45858 927071 102570 287932 669525 287287 67135 11408 45182 2533 561723 280279 490188 108447 50497 126899 282892 322845 142760 624852 355528 290447 548356 505342 37113 78847 277886 253140 60920 215203
is_linear=0
shrinkage=0.05


Tree=14
num_leaves=63
num_cat=0
split_feature=0 20 0 13 124 31 20 13 116 0 13 81 31 20 8 69 12 20 69 13 37 30 13 87 81 87 12 8 87 117 0 29 28 8 0 116 117 13 9 2 0 13 98 86 38 124 21 27 9 117 3 31 20 81 0 69 8 124 0 117 13 69
split_gain=20505.7 7921.41 6779.21 5443.82 3699.64 3401.76 2481.65 2324.31 2033.55 2017.25 1943.1 1543.94 1432.95 1327.3 1274.77 1241.47 1232.01 1217.7 1190.09 1183.18 1083.33 929.607 873.265 866.775 852.776 840.363 836.369 781.476 773.267 769.394 766.97 927.331 693.629 685.614 668.672 667.286 648.919 648.39 570.375 555.133 542.681 538.77 536.499 518.866 511.48 509.022 504.96 502.627 490.034 489.576 485.243 467.029 455.157 453.125 449.056 437.878 433.68 432.185 409.938 404.125 403.144 399.841
threshold=1.2313554883003237 0.0082368720322847384 2.2421277761459355 0.54180228710174572 -0.12618077546358106 0.77405479550361644 -0.7830907106399535 0.7726278305053712 -0.72445750236511219 3.0914210081100468 1.1990946531295779 0.55361905694007885 0.49951894581317907 -0.75813391804695118 0.10747217759490015 1.8737022876739504 0.65005478262901317 -0.98667690157890309 1.5723552703857424 0.48414030671119695 0.48270097374916082 -0.74881932139396656 0.36384734511375433 -0.26461032032966608 -0.27637684345245356 -0.24857705831527707 0.66913017630577099 0.044063365086913116 0.44930410385131841 -0.620316982269287 2.2572900056838994 1.7351776361465456 -1.5871100425720213 0.19133181124925616 0.9325385093688966 -0.39327007532119745 1.9593189358711245 1.7750413417816164 -0.65465620160102833 0.50134754180908214 0.93776828050613414 1.4598140120506289 -0.5740922987461089 2.5067615509033208 3.1098327636718754 -0.12898656725883481 -0.46075558662414545 -1.8246222734451292 -0.67671713232994068 0.081274613738060011 0.65501555800437938 -2.7670419216156001 -1.2973728179931638 0.47642561793327337 1.5685943961143496 2.1936870813369755 0.23283684998750689 -0.13531931489706037 3.1078096628189091 1.3434804677963259 1.8873440623283388 1.4594964981079104
decision_type=2 2 2 2 2 2 2 2 2 2 2 2 2 2 2 2 2 2 2 2 2 2 2 2 2 2 2 2 2 2 2 2 2 2 2 2 2 2 2 2 2 2 2 2 2 2 2 2 2 2 2 2 2 2 2 2 2 2 2 2 2 2
left_child=3 2 4 6 19 8 21 17 56 11 14 23 33 38 30 35 20 25 29 32 39 59 -13 52 -21 -6 41 -19 51 -7 31 42 -2 50 -23 -12 43 -22 49 60 -14 -15 -3 -11 -33 -25 -36 -26 55 -10 -8 -16 -4 -27 -34 -17 -5 -52 -32 -1 -9 -42
right_child=1 10 9 5 7 18 12 16 13 36 15 22 40 26 28 48 -18 27 -20 24 37 34 -24 45 47 53 -28 -29 -30 -31 58 44 54 -35 46 -37 -38 -39 -40 -41 61 -43 -44 -45 -46 -47 -48 -49 -50 -51 57 -53 -54 -55 -56 -57 -58 -59 -60 -61 -62 -63
